digraph Tree {
node [shape=box, style="filled, rounded", color="black", fontname=helvetica] ;
edge [fontname=helvetica] ;
0 [label=<S3_people_vaccinated &le; 2.398<br/>mse = 1.0<br/>samples = 137<br/>value = -0.0>, fillcolor="#f8dfcd"] ;
1 [label=<FD_fireResponseOnly &le; 0.756<br/>mse = 0.348<br/>samples = 131<br/>value = -0.081>, fillcolor="#f9e1d0"] ;
0 -> 1 [labeldistance=2.5, labelangle=45, headlabel="True"] ;
2 [label=<CEN_Hispanic or Latino (of any race) &le; 0.188<br/>mse = 0.314<br/>samples = 109<br/>value = -0.173>, fillcolor="#f9e3d3"] ;
1 -> 2 ;
3 [label=<CP_1_diff &le; -0.505<br/>mse = 0.262<br/>samples = 102<br/>value = -0.134>, fillcolor="#f9e2d2"] ;
2 -> 3 ;
4 [label=<FD_totalFireDepartments &le; 0.565<br/>mse = 0.118<br/>samples = 41<br/>value = -0.268>, fillcolor="#fae5d6"] ;
3 -> 4 ;
5 [label=<S4_people_vaccinated &le; -0.638<br/>mse = 0.055<br/>samples = 34<br/>value = -0.216>, fillcolor="#f9e4d4"] ;
4 -> 5 ;
6 [label=<S1_people_vaccinated_per_hundred &le; 2.333<br/>mse = 0.009<br/>samples = 13<br/>value = -0.145>, fillcolor="#f9e2d2"] ;
5 -> 6 ;
7 [label=<S1_people_fully_vaccinated_per_hundred &le; 2.124<br/>mse = 0.011<br/>samples = 10<br/>value = -0.16>, fillcolor="#f9e3d2"] ;
6 -> 7 ;
8 [label=<metric_change &le; 0.339<br/>mse = 0.013<br/>samples = 7<br/>value = -0.169>, fillcolor="#f9e3d3"] ;
7 -> 8 ;
9 [label=<FD_fireResponseOnly &le; -0.508<br/>mse = 0.01<br/>samples = 5<br/>value = -0.157>, fillcolor="#f9e3d2"] ;
8 -> 9 ;
10 [label=<mse = 0.0<br/>samples = 1<br/>value = -0.109>, fillcolor="#f9e2d1"] ;
9 -> 10 ;
11 [label=<S3_people_fully_vaccinated_per_hundred &le; -1.105<br/>mse = 0.011<br/>samples = 4<br/>value = -0.169>, fillcolor="#f9e3d3"] ;
9 -> 11 ;
12 [label=<mse = 0.007<br/>samples = 2<br/>value = -0.179>, fillcolor="#f9e3d3"] ;
11 -> 12 ;
13 [label=<mse = 0.016<br/>samples = 2<br/>value = -0.16>, fillcolor="#f9e3d2"] ;
11 -> 13 ;
14 [label=<mse = 0.018<br/>samples = 2<br/>value = -0.198>, fillcolor="#f9e3d4"] ;
8 -> 14 ;
15 [label=<metric_change &le; 0.339<br/>mse = 0.007<br/>samples = 3<br/>value = -0.14>, fillcolor="#f9e2d2"] ;
7 -> 15 ;
16 [label=<mse = 0.007<br/>samples = 2<br/>value = -0.174>, fillcolor="#f9e3d3"] ;
15 -> 16 ;
17 [label=<mse = -0.0<br/>samples = 1<br/>value = -0.07>, fillcolor="#f9e1cf"] ;
15 -> 17 ;
18 [label=<metric_change &le; 0.339<br/>mse = 0.0<br/>samples = 3<br/>value = -0.094>, fillcolor="#f9e1d0"] ;
6 -> 18 ;
19 [label=<mse = 0.001<br/>samples = 2<br/>value = -0.098>, fillcolor="#f9e1d0"] ;
18 -> 19 ;
20 [label=<mse = -0.0<br/>samples = 1<br/>value = -0.086>, fillcolor="#f9e1d0"] ;
18 -> 20 ;
21 [label=<FD_totalFireDepartments &le; 0.276<br/>mse = 0.078<br/>samples = 21<br/>value = -0.26>, fillcolor="#fae5d6"] ;
5 -> 21 ;
22 [label=<metric_change &le; 0.339<br/>mse = 0.031<br/>samples = 14<br/>value = -0.234>, fillcolor="#f9e4d5"] ;
21 -> 22 ;
23 [label=<S4_people_vaccinated_per_hundred &le; 0.556<br/>mse = 0.033<br/>samples = 9<br/>value = -0.308>, fillcolor="#fae6d7"] ;
22 -> 23 ;
24 [label=<S1_people_fully_vaccinated_per_hundred &le; -0.401<br/>mse = 0.038<br/>samples = 7<br/>value = -0.29>, fillcolor="#fae5d7"] ;
23 -> 24 ;
25 [label=<CEN_Without Health Care Coverage &le; 0.18<br/>mse = 0.023<br/>samples = 4<br/>value = -0.306>, fillcolor="#fae6d7"] ;
24 -> 25 ;
26 [label=<mse = 0.044<br/>samples = 2<br/>value = -0.306>, fillcolor="#fae6d7"] ;
25 -> 26 ;
27 [label=<mse = 0.003<br/>samples = 2<br/>value = -0.306>, fillcolor="#fae6d7"] ;
25 -> 27 ;
28 [label=<S2_people_vaccinated_per_hundred &le; 0.107<br/>mse = 0.057<br/>samples = 3<br/>value = -0.268>, fillcolor="#fae5d6"] ;
24 -> 28 ;
29 [label=<mse = 0.0<br/>samples = 1<br/>value = -0.27>, fillcolor="#fae5d6"] ;
28 -> 29 ;
30 [label=<mse = 0.085<br/>samples = 2<br/>value = -0.267>, fillcolor="#fae5d6"] ;
28 -> 30 ;
31 [label=<mse = 0.011<br/>samples = 2<br/>value = -0.37>, fillcolor="#fae7da"] ;
23 -> 31 ;
32 [label=<FD_totalFireDepartments &le; -0.725<br/>mse = 0.001<br/>samples = 5<br/>value = -0.101>, fillcolor="#f9e1d0"] ;
22 -> 32 ;
33 [label=<mse = 0.0<br/>samples = 1<br/>value = -0.154>, fillcolor="#f9e3d2"] ;
32 -> 33 ;
34 [label=<S2_people_vaccinated_per_hundred &le; 0.695<br/>mse = 0.0<br/>samples = 4<br/>value = -0.088>, fillcolor="#f9e1d0"] ;
32 -> 34 ;
35 [label=<metric_change &le; 1.517<br/>mse = 0.0<br/>samples = 3<br/>value = -0.094>, fillcolor="#f9e1d0"] ;
34 -> 35 ;
36 [label=<CP_1_diff &le; -0.885<br/>mse = 0.0<br/>samples = 2<br/>value = -0.089>, fillcolor="#f9e1d0"] ;
35 -> 36 ;
37 [label=<mse = 0.0<br/>samples = 1<br/>value = -0.085>, fillcolor="#f9e1d0"] ;
36 -> 37 ;
38 [label=<mse = -0.0<br/>samples = 1<br/>value = -0.094>, fillcolor="#f9e1d0"] ;
36 -> 38 ;
39 [label=<mse = -0.0<br/>samples = 1<br/>value = -0.105>, fillcolor="#f9e1d1"] ;
35 -> 39 ;
40 [label=<mse = -0.0<br/>samples = 1<br/>value = -0.068>, fillcolor="#f9e1cf"] ;
34 -> 40 ;
41 [label=<metric_change &le; 0.339<br/>mse = 0.168<br/>samples = 7<br/>value = -0.312>, fillcolor="#fae6d8"] ;
21 -> 41 ;
42 [label=<HB_bed_State/Local Government &le; 0.096<br/>mse = 0.029<br/>samples = 4<br/>value = -0.241>, fillcolor="#fae4d5"] ;
41 -> 42 ;
43 [label=<mse = 0.0<br/>samples = 1<br/>value = -0.084>, fillcolor="#f9e1d0"] ;
42 -> 43 ;
44 [label=<metric_change &le; -1.426<br/>mse = 0.028<br/>samples = 3<br/>value = -0.294>, fillcolor="#fae6d7"] ;
42 -> 44 ;
45 [label=<mse = 0.0<br/>samples = 1<br/>value = -0.157>, fillcolor="#f9e3d2"] ;
44 -> 45 ;
46 [label=<mse = 0.027<br/>samples = 2<br/>value = -0.362>, fillcolor="#fae7d9"] ;
44 -> 46 ;
47 [label=<S4_people_vaccinated &le; -0.119<br/>mse = 0.338<br/>samples = 3<br/>value = -0.407>, fillcolor="#fae8db"] ;
41 -> 47 ;
48 [label=<mse = 0.0<br/>samples = 1<br/>value = -0.255>, fillcolor="#fae5d6"] ;
47 -> 48 ;
49 [label=<mse = 0.49<br/>samples = 2<br/>value = -0.483>, fillcolor="#fbeadd"] ;
47 -> 49 ;
50 [label=<metric_change &le; 0.339<br/>mse = 0.343<br/>samples = 7<br/>value = -0.523>, fillcolor="#fbeadf"] ;
4 -> 50 ;
51 [label=<S1_people_fully_vaccinated_per_hundred &le; -0.64<br/>mse = 0.286<br/>samples = 3<br/>value = -0.861>, fillcolor="#fcf2ea"] ;
50 -> 51 ;
52 [label=<mse = 0.0<br/>samples = 1<br/>value = -0.163>, fillcolor="#f9e3d3"] ;
51 -> 52 ;
53 [label=<S2_people_vaccinated &le; -0.244<br/>mse = 0.064<br/>samples = 2<br/>value = -1.209>, fillcolor="#fef9f6"] ;
51 -> 53 ;
54 [label=<mse = 0.0<br/>samples = 1<br/>value = -0.957>, fillcolor="#fdf4ed"] ;
53 -> 54 ;
55 [label=<mse = -0.0<br/>samples = 1<br/>value = -1.462>, fillcolor="#fffffe"] ;
53 -> 55 ;
56 [label=<S1_people_vaccinated_per_hundred &le; -0.078<br/>mse = 0.236<br/>samples = 4<br/>value = -0.27>, fillcolor="#fae5d6"] ;
50 -> 56 ;
57 [label=<mse = 0.309<br/>samples = 2<br/>value = -0.553>, fillcolor="#fbebe0"] ;
56 -> 57 ;
58 [label=<FD_adminAndFireResponse &le; 0.929<br/>mse = 0.002<br/>samples = 2<br/>value = 0.013>, fillcolor="#f8dfcd"] ;
56 -> 58 ;
59 [label=<mse = 0.0<br/>samples = 1<br/>value = 0.06>, fillcolor="#f8decb"] ;
58 -> 59 ;
60 [label=<mse = -0.0<br/>samples = 1<br/>value = -0.033>, fillcolor="#f9e0ce"] ;
58 -> 60 ;
61 [label=<CEN_Without Health Care Coverage &le; 1.571<br/>mse = 0.339<br/>samples = 61<br/>value = -0.044>, fillcolor="#f9e0cf"] ;
3 -> 61 ;
62 [label=<metric_change &le; -1.426<br/>mse = 0.267<br/>samples = 56<br/>value = -0.012>, fillcolor="#f8dfcd"] ;
61 -> 62 ;
63 [label=<CP_1_diff &le; 0.071<br/>mse = 0.563<br/>samples = 3<br/>value = -0.463>, fillcolor="#fae9dd"] ;
62 -> 63 ;
64 [label=<mse = 0.0<br/>samples = 1<br/>value = -1.48>, fillcolor="#ffffff"] ;
63 -> 64 ;
65 [label=<CP_0_diff &le; 0.959<br/>mse = 0.069<br/>samples = 2<br/>value = 0.046>, fillcolor="#f8decc"] ;
63 -> 65 ;
66 [label=<mse = 0.0<br/>samples = 1<br/>value = 0.308>, fillcolor="#f7d9c3"] ;
65 -> 66 ;
67 [label=<mse = 0.0<br/>samples = 1<br/>value = -0.216>, fillcolor="#f9e4d4"] ;
65 -> 67 ;
68 [label=<CEN_Total Housing Units &le; 0.122<br/>mse = 0.239<br/>samples = 53<br/>value = 0.013>, fillcolor="#f8dfcd"] ;
62 -> 68 ;
69 [label=<FD_totalFireDepartments &le; 0.663<br/>mse = 0.12<br/>samples = 48<br/>value = -0.026>, fillcolor="#f9e0ce"] ;
68 -> 69 ;
70 [label=<S2_people_fully_vaccinated_per_hundred &le; 1.878<br/>mse = 0.113<br/>samples = 46<br/>value = -0.04>, fillcolor="#f9e0ce"] ;
69 -> 70 ;
71 [label=<S2_people_vaccinated_per_hundred &le; -1.521<br/>mse = 0.111<br/>samples = 43<br/>value = -0.055>, fillcolor="#f9e0cf"] ;
70 -> 71 ;
72 [label=<S1_people_fully_vaccinated &le; -0.532<br/>mse = 0.152<br/>samples = 5<br/>value = -0.175>, fillcolor="#f9e3d3"] ;
71 -> 72 ;
73 [label=<metric_change &le; 0.339<br/>mse = 0.146<br/>samples = 3<br/>value = -0.119>, fillcolor="#f9e2d1"] ;
72 -> 73 ;
74 [label=<mse = 0.218<br/>samples = 2<br/>value = -0.103>, fillcolor="#f9e1d1"] ;
73 -> 74 ;
75 [label=<mse = -0.0<br/>samples = 1<br/>value = -0.15>, fillcolor="#f9e2d2"] ;
73 -> 75 ;
76 [label=<mse = 0.148<br/>samples = 2<br/>value = -0.259>, fillcolor="#fae5d6"] ;
72 -> 76 ;
77 [label=<metric_change &le; 0.339<br/>mse = 0.103<br/>samples = 38<br/>value = -0.039>, fillcolor="#f9e0ce"] ;
71 -> 77 ;
78 [label=<S1_people_vaccinated_per_hundred &le; 1.285<br/>mse = 0.094<br/>samples = 24<br/>value = -0.069>, fillcolor="#f9e1cf"] ;
77 -> 78 ;
79 [label=<HB_bed_For-Profit &le; 0.792<br/>mse = 0.052<br/>samples = 23<br/>value = -0.025>, fillcolor="#f9e0ce"] ;
78 -> 79 ;
80 [label=<S2_people_fully_vaccinated &le; -0.684<br/>mse = 0.054<br/>samples = 19<br/>value = -0.062>, fillcolor="#f9e1cf"] ;
79 -> 80 ;
81 [label=<S4_people_fully_vaccinated &le; -0.725<br/>mse = 0.01<br/>samples = 5<br/>value = 0.0>, fillcolor="#f8dfcd"] ;
80 -> 81 ;
82 [label=<mse = 0.0<br/>samples = 1<br/>value = -0.085>, fillcolor="#f9e1d0"] ;
81 -> 82 ;
83 [label=<CEN_Total Housing Units &le; -0.76<br/>mse = 0.011<br/>samples = 4<br/>value = 0.021>, fillcolor="#f8dfcc"] ;
81 -> 83 ;
84 [label=<mse = 0.006<br/>samples = 2<br/>value = 0.027>, fillcolor="#f8dfcc"] ;
83 -> 84 ;
85 [label=<mse = 0.015<br/>samples = 2<br/>value = 0.016>, fillcolor="#f8dfcd"] ;
83 -> 85 ;
86 [label=<HB_bed_For-Profit &le; 0.428<br/>mse = 0.067<br/>samples = 14<br/>value = -0.085>, fillcolor="#f9e1d0"] ;
80 -> 86 ;
87 [label=<FD_totalFireDepartments &le; 0.07<br/>mse = 0.011<br/>samples = 11<br/>value = -0.098>, fillcolor="#f9e1d0"] ;
86 -> 87 ;
88 [label=<S4_people_vaccinated_per_hundred &le; 1.368<br/>mse = 0.011<br/>samples = 9<br/>value = -0.088>, fillcolor="#f9e1d0"] ;
87 -> 88 ;
89 [label=<CEN_Bachelor's Degree or Higher &le; 0.281<br/>mse = 0.007<br/>samples = 5<br/>value = -0.096>, fillcolor="#f9e1d0"] ;
88 -> 89 ;
90 [label=<S4_people_vaccinated_per_hundred &le; -0.204<br/>mse = 0.007<br/>samples = 3<br/>value = -0.095>, fillcolor="#f9e1d0"] ;
89 -> 90 ;
91 [label=<mse = 0.0<br/>samples = 1<br/>value = -0.094>, fillcolor="#f9e1d0"] ;
90 -> 91 ;
92 [label=<mse = 0.011<br/>samples = 2<br/>value = -0.095>, fillcolor="#f9e1d0"] ;
90 -> 92 ;
93 [label=<mse = 0.007<br/>samples = 2<br/>value = -0.098>, fillcolor="#f9e1d0"] ;
89 -> 93 ;
94 [label=<CP_0_diff &le; -0.017<br/>mse = 0.015<br/>samples = 4<br/>value = -0.078>, fillcolor="#f9e1d0"] ;
88 -> 94 ;
95 [label=<mse = 0.03<br/>samples = 2<br/>value = -0.074>, fillcolor="#f9e1d0"] ;
94 -> 95 ;
96 [label=<mse = 0.0<br/>samples = 2<br/>value = -0.082>, fillcolor="#f9e1d0"] ;
94 -> 96 ;
97 [label=<mse = 0.008<br/>samples = 2<br/>value = -0.144>, fillcolor="#f9e2d2"] ;
87 -> 97 ;
98 [label=<S4_people_vaccinated &le; -0.44<br/>mse = 0.271<br/>samples = 3<br/>value = -0.035>, fillcolor="#f9e0ce"] ;
86 -> 98 ;
99 [label=<mse = 0.0<br/>samples = 1<br/>value = -0.0>, fillcolor="#f8dfcd"] ;
98 -> 99 ;
100 [label=<mse = 0.406<br/>samples = 2<br/>value = -0.052>, fillcolor="#f9e0cf"] ;
98 -> 100 ;
101 [label=<CEN_Hispanic or Latino (of any race) &le; -0.227<br/>mse = 0.004<br/>samples = 4<br/>value = 0.152>, fillcolor="#f8dcc8"] ;
79 -> 101 ;
102 [label=<mse = 0.001<br/>samples = 2<br/>value = 0.182>, fillcolor="#f8dbc7"] ;
101 -> 102 ;
103 [label=<mse = 0.005<br/>samples = 2<br/>value = 0.123>, fillcolor="#f8ddc9"] ;
101 -> 103 ;
104 [label=<mse = -0.0<br/>samples = 1<br/>value = -1.081>, fillcolor="#fdf6f2"] ;
78 -> 104 ;
105 [label=<CEN_Total Employer Establishments &le; -0.006<br/>mse = 0.115<br/>samples = 14<br/>value = 0.011>, fillcolor="#f8dfcd"] ;
77 -> 105 ;
106 [label=<FD_fireResponseOnly &le; -0.421<br/>mse = 0.006<br/>samples = 12<br/>value = -0.072>, fillcolor="#f9e1cf"] ;
105 -> 106 ;
107 [label=<S3_people_vaccinated_per_hundred &le; 0.832<br/>mse = 0.004<br/>samples = 9<br/>value = -0.039>, fillcolor="#f9e0ce"] ;
106 -> 107 ;
108 [label=<CEN_Total Employer Establishments &le; -0.636<br/>mse = 0.002<br/>samples = 5<br/>value = 0.005>, fillcolor="#f8dfcd"] ;
107 -> 108 ;
109 [label=<CEN_Total Housing Units &le; -0.721<br/>mse = 0.002<br/>samples = 3<br/>value = -0.016>, fillcolor="#f9e0ce"] ;
108 -> 109 ;
110 [label=<mse = 0.0<br/>samples = 1<br/>value = -0.022>, fillcolor="#f9e0ce"] ;
109 -> 110 ;
111 [label=<mse = 0.003<br/>samples = 2<br/>value = -0.013>, fillcolor="#f9e0ce"] ;
109 -> 111 ;
112 [label=<FD_moreThan10kCitizens &le; -0.574<br/>mse = 0.0<br/>samples = 2<br/>value = 0.036>, fillcolor="#f8decc"] ;
108 -> 112 ;
113 [label=<mse = 0.0<br/>samples = 1<br/>value = 0.019>, fillcolor="#f8dfcc"] ;
112 -> 113 ;
114 [label=<mse = 0.0<br/>samples = 1<br/>value = 0.052>, fillcolor="#f8decb"] ;
112 -> 114 ;
115 [label=<CP_1_diff &le; 3.007<br/>mse = 0.0<br/>samples = 4<br/>value = -0.093>, fillcolor="#f9e1d0"] ;
107 -> 115 ;
116 [label=<CP_0_diff &le; -1.043<br/>mse = 0.0<br/>samples = 3<br/>value = -0.085>, fillcolor="#f9e1d0"] ;
115 -> 116 ;
117 [label=<mse = 0.0<br/>samples = 1<br/>value = -0.079>, fillcolor="#f9e1d0"] ;
116 -> 117 ;
118 [label=<S3_people_vaccinated_per_hundred &le; 1.39<br/>mse = 0.0<br/>samples = 2<br/>value = -0.088>, fillcolor="#f9e1d0"] ;
116 -> 118 ;
119 [label=<mse = 0.0<br/>samples = 1<br/>value = -0.086>, fillcolor="#f9e1d0"] ;
118 -> 119 ;
120 [label=<mse = 0.0<br/>samples = 1<br/>value = -0.09>, fillcolor="#f9e1d0"] ;
118 -> 120 ;
121 [label=<mse = 0.0<br/>samples = 1<br/>value = -0.118>, fillcolor="#f9e2d1"] ;
115 -> 121 ;
122 [label=<FD_lessThan10kCitizens &le; 0.61<br/>mse = 0.001<br/>samples = 3<br/>value = -0.17>, fillcolor="#f9e3d3"] ;
106 -> 122 ;
123 [label=<CEN_Bachelor's Degree or Higher &le; -1.296<br/>mse = 0.0<br/>samples = 2<br/>value = -0.153>, fillcolor="#f9e3d2"] ;
122 -> 123 ;
124 [label=<mse = 0.0<br/>samples = 1<br/>value = -0.151>, fillcolor="#f9e2d2"] ;
123 -> 124 ;
125 [label=<mse = -0.0<br/>samples = 1<br/>value = -0.155>, fillcolor="#f9e3d2"] ;
123 -> 125 ;
126 [label=<mse = -0.0<br/>samples = 1<br/>value = -0.203>, fillcolor="#f9e4d4"] ;
122 -> 126 ;
127 [label=<mse = 0.478<br/>samples = 2<br/>value = 0.509>, fillcolor="#f6d4bc"] ;
105 -> 127 ;
128 [label=<metric_change &le; 0.339<br/>mse = 0.1<br/>samples = 3<br/>value = 0.179>, fillcolor="#f8dbc7"] ;
70 -> 128 ;
129 [label=<mse = 0.0<br/>samples = 1<br/>value = 0.393>, fillcolor="#f7d7c0"] ;
128 -> 129 ;
130 [label=<mse = 0.115<br/>samples = 2<br/>value = 0.072>, fillcolor="#f8decb"] ;
128 -> 130 ;
131 [label=<mse = 0.172<br/>samples = 2<br/>value = 0.286>, fillcolor="#f7d9c3"] ;
69 -> 131 ;
132 [label=<metric_change &le; 0.339<br/>mse = 1.219<br/>samples = 5<br/>value = 0.392>, fillcolor="#f7d7c0"] ;
68 -> 132 ;
133 [label=<CEN_Hispanic or Latino (of any race) &le; -0.253<br/>mse = 1.457<br/>samples = 4<br/>value = 0.507>, fillcolor="#f6d4bc"] ;
132 -> 133 ;
134 [label=<mse = 1.058<br/>samples = 2<br/>value = 0.628>, fillcolor="#f6d2b8"] ;
133 -> 134 ;
135 [label=<mse = 1.827<br/>samples = 2<br/>value = 0.386>, fillcolor="#f7d7c0"] ;
133 -> 135 ;
136 [label=<mse = 0.0<br/>samples = 1<br/>value = -0.07>, fillcolor="#f9e1cf"] ;
132 -> 136 ;
137 [label=<metric_change &le; 0.339<br/>mse = 1.003<br/>samples = 5<br/>value = -0.394>, fillcolor="#fae8da"] ;
61 -> 137 ;
138 [label=<S2_people_vaccinated &le; -0.039<br/>mse = 1.615<br/>samples = 3<br/>value = -0.546>, fillcolor="#fbebdf"] ;
137 -> 138 ;
139 [label=<mse = 0.0<br/>samples = 1<br/>value = -0.82>, fillcolor="#fcf1e9"] ;
138 -> 139 ;
140 [label=<mse = 2.366<br/>samples = 2<br/>value = -0.409>, fillcolor="#fae8db"] ;
138 -> 140 ;
141 [label=<mse = 0.0<br/>samples = 2<br/>value = -0.167>, fillcolor="#f9e3d3"] ;
137 -> 141 ;
142 [label=<metric_change &le; 0.339<br/>mse = 0.729<br/>samples = 7<br/>value = -0.737>, fillcolor="#fcefe6"] ;
2 -> 142 ;
143 [label=<OB_Prevalence &le; -0.618<br/>mse = 0.67<br/>samples = 6<br/>value = -0.898>, fillcolor="#fcf2eb"] ;
142 -> 143 ;
144 [label=<mse = 1.429<br/>samples = 2<br/>value = -0.284>, fillcolor="#fae5d7"] ;
143 -> 144 ;
145 [label=<metric_change &le; -1.426<br/>mse = 0.009<br/>samples = 4<br/>value = -1.205>, fillcolor="#fef9f6"] ;
143 -> 145 ;
146 [label=<mse = 0.0<br/>samples = 1<br/>value = -1.077>, fillcolor="#fdf6f1"] ;
145 -> 146 ;
147 [label=<S4_people_vaccinated &le; 0.426<br/>mse = 0.004<br/>samples = 3<br/>value = -1.247>, fillcolor="#fefaf7"] ;
145 -> 147 ;
148 [label=<mse = 0.0<br/>samples = 1<br/>value = -1.337>, fillcolor="#fefcfa"] ;
147 -> 148 ;
149 [label=<mse = 0.0<br/>samples = 2<br/>value = -1.202>, fillcolor="#fef9f6"] ;
147 -> 149 ;
150 [label=<mse = 0.0<br/>samples = 1<br/>value = 0.226>, fillcolor="#f7dac5"] ;
142 -> 150 ;
151 [label=<S1_people_vaccinated &le; 0.538<br/>mse = 0.266<br/>samples = 22<br/>value = 0.374>, fillcolor="#f7d7c0"] ;
1 -> 151 ;
152 [label=<S3_people_fully_vaccinated &le; 0.388<br/>mse = 0.049<br/>samples = 16<br/>value = 0.216>, fillcolor="#f7dbc6"] ;
151 -> 152 ;
153 [label=<S2_people_vaccinated &le; 0.169<br/>mse = 0.028<br/>samples = 11<br/>value = 0.139>, fillcolor="#f8dcc8"] ;
152 -> 153 ;
154 [label=<metric_change &le; 0.339<br/>mse = 0.057<br/>samples = 3<br/>value = 0.004>, fillcolor="#f8dfcd"] ;
153 -> 154 ;
155 [label=<mse = 0.075<br/>samples = 2<br/>value = -0.056>, fillcolor="#f9e0cf"] ;
154 -> 155 ;
156 [label=<mse = -0.0<br/>samples = 1<br/>value = 0.125>, fillcolor="#f8ddc9"] ;
154 -> 156 ;
157 [label=<metric_change &le; -3.192<br/>mse = 0.007<br/>samples = 8<br/>value = 0.189>, fillcolor="#f8dbc7"] ;
153 -> 157 ;
158 [label=<mse = 0.014<br/>samples = 2<br/>value = 0.204>, fillcolor="#f8dbc6"] ;
157 -> 158 ;
159 [label=<metric_change &le; 0.339<br/>mse = 0.005<br/>samples = 6<br/>value = 0.185>, fillcolor="#f8dbc7"] ;
157 -> 159 ;
160 [label=<metric_change &le; -1.426<br/>mse = 0.0<br/>samples = 4<br/>value = 0.176>, fillcolor="#f8dbc7"] ;
159 -> 160 ;
161 [label=<mse = 0.0<br/>samples = 2<br/>value = 0.176>, fillcolor="#f8dbc7"] ;
160 -> 161 ;
162 [label=<mse = 0.0<br/>samples = 2<br/>value = 0.176>, fillcolor="#f8dbc7"] ;
160 -> 162 ;
163 [label=<mse = 0.014<br/>samples = 2<br/>value = 0.203>, fillcolor="#f8dbc6"] ;
159 -> 163 ;
164 [label=<metric_change &le; 0.339<br/>mse = 0.054<br/>samples = 5<br/>value = 0.385>, fillcolor="#f7d7c0"] ;
152 -> 164 ;
165 [label=<CEN_Median Household Income &le; 1.418<br/>mse = 0.001<br/>samples = 3<br/>value = 0.455>, fillcolor="#f6d5be"] ;
164 -> 165 ;
166 [label=<mse = 0.0<br/>samples = 1<br/>value = 0.421>, fillcolor="#f7d6bf"] ;
165 -> 166 ;
167 [label=<mse = 0.001<br/>samples = 2<br/>value = 0.472>, fillcolor="#f6d5bd"] ;
165 -> 167 ;
168 [label=<mse = 0.115<br/>samples = 2<br/>value = 0.28>, fillcolor="#f7d9c4"] ;
164 -> 168 ;
169 [label=<CEN_Employment Rate &le; -0.353<br/>mse = 0.6<br/>samples = 6<br/>value = 0.796>, fillcolor="#f5ceb2"] ;
151 -> 169 ;
170 [label=<metric_change &le; 0.339<br/>mse = 0.41<br/>samples = 3<br/>value = 0.824>, fillcolor="#f5ceb1"] ;
169 -> 170 ;
171 [label=<mse = 0.003<br/>samples = 2<br/>value = 1.277>, fillcolor="#f3c4a2"] ;
170 -> 171 ;
172 [label=<mse = -0.0<br/>samples = 1<br/>value = -0.08>, fillcolor="#f9e1d0"] ;
170 -> 172 ;
173 [label=<metric_change &le; 0.339<br/>mse = 0.787<br/>samples = 3<br/>value = 0.767>, fillcolor="#f5cfb3"] ;
169 -> 173 ;
174 [label=<mse = 0.0<br/>samples = 1<br/>value = -0.195>, fillcolor="#f9e3d4"] ;
173 -> 174 ;
175 [label=<mse = 0.487<br/>samples = 2<br/>value = 1.248>, fillcolor="#f3c4a3"] ;
173 -> 175 ;
176 [label=<metric_change &le; 0.339<br/>mse = 11.981<br/>samples = 6<br/>value = 1.767>, fillcolor="#f1b991"] ;
0 -> 176 [labeldistance=2.5, labelangle=-45, headlabel="False"] ;
177 [label=<FD_lessThan10kCitizens &le; 1.148<br/>mse = 3.255<br/>samples = 3<br/>value = 1.01>, fillcolor="#f4caab"] ;
176 -> 177 ;
178 [label=<mse = 0.0<br/>samples = 1<br/>value = -1.279>, fillcolor="#fefbf8"] ;
177 -> 178 ;
179 [label=<mse = 0.952<br/>samples = 2<br/>value = 2.155>, fillcolor="#efb184"] ;
177 -> 179 ;
180 [label=<CEN_Total Employer Establishments &le; 3.75<br/>mse = 19.563<br/>samples = 3<br/>value = 2.523>, fillcolor="#eda978"] ;
176 -> 180 ;
181 [label=<mse = 0.0<br/>samples = 1<br/>value = -1.21>, fillcolor="#fef9f6"] ;
180 -> 181 ;
182 [label=<mse = 18.895<br/>samples = 2<br/>value = 4.39>, fillcolor="#e58139"] ;
180 -> 182 ;
}
