digraph Tree {
node [shape=box, style="filled, rounded", color="black", fontname=helvetica] ;
edge [fontname=helvetica] ;
0 [label=<CEN_Hispanic or Latino (of any race) &le; 4.065<br/>mse = 1.0<br/>samples = 147<br/>value = -0.0>, fillcolor="#eeac7d"] ;
1 [label=<S1_people_fully_vaccinated &le; 3.186<br/>mse = 0.19<br/>samples = 143<br/>value = 0.079>, fillcolor="#eeab7b"] ;
0 -> 1 [labeldistance=2.5, labelangle=45, headlabel="True"] ;
2 [label=<S1_people_vaccinated &le; 1.688<br/>mse = 0.138<br/>samples = 139<br/>value = 0.054>, fillcolor="#eeab7c"] ;
1 -> 2 ;
3 [label=<metric_change &le; 0.011<br/>mse = 0.068<br/>samples = 136<br/>value = 0.075>, fillcolor="#eeab7b"] ;
2 -> 3 ;
4 [label=<S2_people_vaccinated &le; 0.298<br/>mse = 0.041<br/>samples = 80<br/>value = 0.026>, fillcolor="#eeac7c"] ;
3 -> 4 ;
5 [label=<FD_moreThan10kCitizens &le; 0.587<br/>mse = 0.014<br/>samples = 70<br/>value = 0.055>, fillcolor="#eeab7b"] ;
4 -> 5 ;
6 [label=<S2_people_vaccinated_per_hundred &le; -1.587<br/>mse = 0.013<br/>samples = 67<br/>value = 0.046>, fillcolor="#eeab7c"] ;
5 -> 6 ;
7 [label=<CEN_Employment Rate &le; -1.719<br/>mse = 0.06<br/>samples = 4<br/>value = -0.072>, fillcolor="#eead7f"] ;
6 -> 7 ;
8 [label=<mse = 0.001<br/>samples = 2<br/>value = 0.056>, fillcolor="#eeab7b"] ;
7 -> 8 ;
9 [label=<mse = 0.085<br/>samples = 2<br/>value = -0.2>, fillcolor="#efaf82"] ;
7 -> 9 ;
10 [label=<CEN_Bachelor's Degree or Higher &le; 1.824<br/>mse = 0.009<br/>samples = 63<br/>value = 0.053>, fillcolor="#eeab7c"] ;
6 -> 10 ;
11 [label=<CEN_Without Health Care Coverage &le; 1.47<br/>mse = 0.008<br/>samples = 61<br/>value = 0.059>, fillcolor="#eeab7b"] ;
10 -> 11 ;
12 [label=<S2_people_fully_vaccinated_per_hundred &le; 2.028<br/>mse = 0.006<br/>samples = 58<br/>value = 0.065>, fillcolor="#eeab7b"] ;
11 -> 12 ;
13 [label=<S3_people_vaccinated &le; 0.004<br/>mse = 0.006<br/>samples = 57<br/>value = 0.062>, fillcolor="#eeab7b"] ;
12 -> 13 ;
14 [label=<CEN_Total Employer Establishments &le; -0.093<br/>mse = 0.006<br/>samples = 50<br/>value = 0.052>, fillcolor="#eeab7c"] ;
13 -> 14 ;
15 [label=<CP_0_diff &le; -1.161<br/>mse = 0.003<br/>samples = 46<br/>value = 0.058>, fillcolor="#eeab7b"] ;
14 -> 15 ;
16 [label=<mse = 0.011<br/>samples = 2<br/>value = 0.146>, fillcolor="#edaa79"] ;
15 -> 16 ;
17 [label=<HB_bed_State/Local Government &le; 1.062<br/>mse = 0.003<br/>samples = 44<br/>value = 0.054>, fillcolor="#eeab7b"] ;
15 -> 17 ;
18 [label=<S4_people_fully_vaccinated &le; -0.7<br/>mse = 0.002<br/>samples = 38<br/>value = 0.048>, fillcolor="#eeab7c"] ;
17 -> 18 ;
19 [label=<FD_moreThan10kCitizens &le; -1.029<br/>mse = 0.001<br/>samples = 7<br/>value = 0.078>, fillcolor="#eeab7b"] ;
18 -> 19 ;
20 [label=<S4_people_vaccinated_per_hundred &le; 0.677<br/>mse = 0.0<br/>samples = 3<br/>value = 0.058>, fillcolor="#eeab7b"] ;
19 -> 20 ;
21 [label=<mse = 0.0<br/>samples = 1<br/>value = 0.058>, fillcolor="#eeab7b"] ;
20 -> 21 ;
22 [label=<mse = 0.0<br/>samples = 2<br/>value = 0.058>, fillcolor="#eeab7b"] ;
20 -> 22 ;
23 [label=<S1_people_fully_vaccinated &le; -0.814<br/>mse = 0.001<br/>samples = 4<br/>value = 0.092>, fillcolor="#eeab7b"] ;
19 -> 23 ;
24 [label=<CEN_Total Employer Establishments &le; -0.751<br/>mse = 0.001<br/>samples = 3<br/>value = 0.098>, fillcolor="#eeab7a"] ;
23 -> 24 ;
25 [label=<mse = 0.0<br/>samples = 1<br/>value = 0.09>, fillcolor="#eeab7b"] ;
24 -> 25 ;
26 [label=<mse = 0.001<br/>samples = 2<br/>value = 0.102>, fillcolor="#eeab7a"] ;
24 -> 26 ;
27 [label=<mse = -0.0<br/>samples = 1<br/>value = 0.075>, fillcolor="#eeab7b"] ;
23 -> 27 ;
28 [label=<CEN_Employment Rate &le; 1.03<br/>mse = 0.002<br/>samples = 31<br/>value = 0.042>, fillcolor="#eeab7c"] ;
18 -> 28 ;
29 [label=<HB_bed_Non-Profit &le; 0.13<br/>mse = 0.001<br/>samples = 26<br/>value = 0.045>, fillcolor="#eeab7c"] ;
28 -> 29 ;
30 [label=<OB_Prevalence &le; -0.965<br/>mse = 0.001<br/>samples = 15<br/>value = 0.052>, fillcolor="#eeab7c"] ;
29 -> 30 ;
31 [label=<S3_people_fully_vaccinated_per_hundred &le; 0.688<br/>mse = 0.0<br/>samples = 4<br/>value = 0.061>, fillcolor="#eeab7b"] ;
30 -> 31 ;
32 [label=<mse = 0.0<br/>samples = 2<br/>value = 0.061>, fillcolor="#eeab7b"] ;
31 -> 32 ;
33 [label=<mse = 0.0<br/>samples = 2<br/>value = 0.06>, fillcolor="#eeab7b"] ;
31 -> 33 ;
34 [label=<CEN_Total Employer Establishments &le; -0.131<br/>mse = 0.001<br/>samples = 11<br/>value = 0.048>, fillcolor="#eeab7c"] ;
30 -> 34 ;
35 [label=<CP_0_diff &le; -0.011<br/>mse = 0.001<br/>samples = 9<br/>value = 0.047>, fillcolor="#eeab7c"] ;
34 -> 35 ;
36 [label=<FD_moreThan10kCitizens &le; -0.671<br/>mse = 0.002<br/>samples = 4<br/>value = 0.049>, fillcolor="#eeab7c"] ;
35 -> 36 ;
37 [label=<mse = 0.0<br/>samples = 2<br/>value = 0.048>, fillcolor="#eeab7c"] ;
36 -> 37 ;
38 [label=<mse = 0.004<br/>samples = 2<br/>value = 0.049>, fillcolor="#eeab7c"] ;
36 -> 38 ;
39 [label=<S4_people_vaccinated_per_hundred &le; 0.412<br/>mse = 0.0<br/>samples = 5<br/>value = 0.046>, fillcolor="#eeab7c"] ;
35 -> 39 ;
40 [label=<CEN_Median Household Income &le; -0.51<br/>mse = 0.0<br/>samples = 4<br/>value = 0.046>, fillcolor="#eeab7c"] ;
39 -> 40 ;
41 [label=<mse = 0.0<br/>samples = 2<br/>value = 0.046>, fillcolor="#eeab7c"] ;
40 -> 41 ;
42 [label=<mse = 0.0<br/>samples = 2<br/>value = 0.046>, fillcolor="#eeab7c"] ;
40 -> 42 ;
43 [label=<mse = 0.0<br/>samples = 1<br/>value = 0.044>, fillcolor="#eeab7c"] ;
39 -> 43 ;
44 [label=<mse = 0.001<br/>samples = 2<br/>value = 0.055>, fillcolor="#eeab7b"] ;
34 -> 44 ;
45 [label=<HB_bed_Total &le; 1.282<br/>mse = 0.001<br/>samples = 11<br/>value = 0.037>, fillcolor="#eeac7c"] ;
29 -> 45 ;
46 [label=<S3_people_fully_vaccinated_per_hundred &le; -0.805<br/>mse = 0.001<br/>samples = 9<br/>value = 0.032>, fillcolor="#eeac7c"] ;
45 -> 46 ;
47 [label=<mse = 0.0<br/>samples = 1<br/>value = 0.009>, fillcolor="#eeac7d"] ;
46 -> 47 ;
48 [label=<CEN_Hispanic or Latino (of any race) &le; -0.415<br/>mse = 0.001<br/>samples = 8<br/>value = 0.035>, fillcolor="#eeac7c"] ;
46 -> 48 ;
49 [label=<mse = 0.001<br/>samples = 2<br/>value = 0.029>, fillcolor="#eeac7c"] ;
48 -> 49 ;
50 [label=<FD_fireResponseOnly &le; -0.386<br/>mse = 0.0<br/>samples = 6<br/>value = 0.037>, fillcolor="#eeac7c"] ;
48 -> 50 ;
51 [label=<CEN_Without Health Care Coverage &le; -1.264<br/>mse = 0.001<br/>samples = 4<br/>value = 0.036>, fillcolor="#eeac7c"] ;
50 -> 51 ;
52 [label=<mse = 0.0<br/>samples = 2<br/>value = 0.036>, fillcolor="#eeac7c"] ;
51 -> 52 ;
53 [label=<mse = 0.001<br/>samples = 2<br/>value = 0.036>, fillcolor="#eeac7c"] ;
51 -> 53 ;
54 [label=<mse = 0.0<br/>samples = 2<br/>value = 0.039>, fillcolor="#eeac7c"] ;
50 -> 54 ;
55 [label=<mse = 0.0<br/>samples = 2<br/>value = 0.058>, fillcolor="#eeab7b"] ;
45 -> 55 ;
56 [label=<CEN_Median Household Income &le; 1.103<br/>mse = 0.009<br/>samples = 5<br/>value = 0.024>, fillcolor="#eeac7c"] ;
28 -> 56 ;
57 [label=<CEN_Median Household Income &le; 0.409<br/>mse = 0.014<br/>samples = 3<br/>value = 0.028>, fillcolor="#eeac7c"] ;
56 -> 57 ;
58 [label=<mse = 0.022<br/>samples = 2<br/>value = 0.028>, fillcolor="#eeac7c"] ;
57 -> 58 ;
59 [label=<mse = -0.0<br/>samples = 1<br/>value = 0.028>, fillcolor="#eeac7c"] ;
57 -> 59 ;
60 [label=<mse = 0.001<br/>samples = 2<br/>value = 0.017>, fillcolor="#eeac7c"] ;
56 -> 60 ;
61 [label=<CEN_Without Health Care Coverage &le; 0.301<br/>mse = 0.005<br/>samples = 6<br/>value = 0.089>, fillcolor="#eeab7b"] ;
17 -> 61 ;
62 [label=<CEN_Bachelor's Degree or Higher &le; -0.125<br/>mse = 0.002<br/>samples = 3<br/>value = 0.104>, fillcolor="#eeab7a"] ;
61 -> 62 ;
63 [label=<mse = 0.0<br/>samples = 1<br/>value = 0.116>, fillcolor="#eeaa7a"] ;
62 -> 63 ;
64 [label=<mse = 0.004<br/>samples = 2<br/>value = 0.098>, fillcolor="#eeab7a"] ;
62 -> 64 ;
65 [label=<S1_people_fully_vaccinated &le; -0.576<br/>mse = 0.007<br/>samples = 3<br/>value = 0.075>, fillcolor="#eeab7b"] ;
61 -> 65 ;
66 [label=<mse = 0.0<br/>samples = 1<br/>value = 0.06>, fillcolor="#eeab7b"] ;
65 -> 66 ;
67 [label=<mse = 0.01<br/>samples = 2<br/>value = 0.082>, fillcolor="#eeab7b"] ;
65 -> 67 ;
68 [label=<CEN_Total Households &le; -0.068<br/>mse = 0.028<br/>samples = 4<br/>value = -0.014>, fillcolor="#eeac7d"] ;
14 -> 68 ;
69 [label=<mse = 0.053<br/>samples = 2<br/>value = -0.007>, fillcolor="#eeac7d"] ;
68 -> 69 ;
70 [label=<mse = 0.004<br/>samples = 2<br/>value = -0.021>, fillcolor="#eeac7d"] ;
68 -> 70 ;
71 [label=<FD_adminAndFireResponse &le; 0.141<br/>mse = 0.002<br/>samples = 7<br/>value = 0.131>, fillcolor="#edaa7a"] ;
13 -> 71 ;
72 [label=<S4_people_fully_vaccinated_per_hundred &le; 0.247<br/>mse = 0.003<br/>samples = 5<br/>value = 0.139>, fillcolor="#edaa79"] ;
71 -> 72 ;
73 [label=<mse = 0.001<br/>samples = 2<br/>value = 0.134>, fillcolor="#edaa7a"] ;
72 -> 73 ;
74 [label=<metric_change &le; -1.178<br/>mse = 0.004<br/>samples = 3<br/>value = 0.142>, fillcolor="#edaa79"] ;
72 -> 74 ;
75 [label=<mse = 0.0<br/>samples = 1<br/>value = 0.144>, fillcolor="#edaa79"] ;
74 -> 75 ;
76 [label=<mse = 0.006<br/>samples = 2<br/>value = 0.142>, fillcolor="#edaa79"] ;
74 -> 76 ;
77 [label=<mse = 0.0<br/>samples = 2<br/>value = 0.11>, fillcolor="#eeaa7a"] ;
71 -> 77 ;
78 [label=<mse = 0.0<br/>samples = 1<br/>value = 0.256>, fillcolor="#eda877"] ;
12 -> 78 ;
79 [label=<CEN_Total Population &le; 0.067<br/>mse = 0.014<br/>samples = 3<br/>value = -0.069>, fillcolor="#eead7e"] ;
11 -> 79 ;
80 [label=<mse = 0.02<br/>samples = 2<br/>value = -0.067>, fillcolor="#eead7e"] ;
79 -> 80 ;
81 [label=<mse = 0.0<br/>samples = 1<br/>value = -0.073>, fillcolor="#eead7f"] ;
79 -> 81 ;
82 [label=<mse = 0.016<br/>samples = 2<br/>value = -0.104>, fillcolor="#eeae7f"] ;
10 -> 82 ;
83 [label=<CEN_Hispanic or Latino (of any race) &le; -0.209<br/>mse = 0.006<br/>samples = 3<br/>value = 0.259>, fillcolor="#eda877"] ;
5 -> 83 ;
84 [label=<mse = 0.0<br/>samples = 2<br/>value = 0.203>, fillcolor="#eda978"] ;
83 -> 84 ;
85 [label=<mse = 0.0<br/>samples = 1<br/>value = 0.37>, fillcolor="#eda674"] ;
83 -> 85 ;
86 [label=<FD_fireResponseOnly &le; 0.133<br/>mse = 0.178<br/>samples = 10<br/>value = -0.178>, fillcolor="#eeaf81"] ;
4 -> 86 ;
87 [label=<HB_bed_Non-Profit &le; 0.717<br/>mse = 0.184<br/>samples = 4<br/>value = -0.432>, fillcolor="#efb387"] ;
86 -> 87 ;
88 [label=<mse = 0.142<br/>samples = 2<br/>value = -0.409>, fillcolor="#efb287"] ;
87 -> 88 ;
89 [label=<mse = 0.226<br/>samples = 2<br/>value = -0.455>, fillcolor="#efb388"] ;
87 -> 89 ;
90 [label=<CEN_Without Health Care Coverage &le; -0.594<br/>mse = 0.102<br/>samples = 6<br/>value = -0.01>, fillcolor="#eeac7d"] ;
86 -> 90 ;
91 [label=<mse = 0.082<br/>samples = 2<br/>value = 0.202>, fillcolor="#eda978"] ;
90 -> 91 ;
92 [label=<CEN_Total Housing Units &le; 0.271<br/>mse = 0.078<br/>samples = 4<br/>value = -0.116>, fillcolor="#eeae80"] ;
90 -> 92 ;
93 [label=<mse = 0.15<br/>samples = 2<br/>value = -0.118>, fillcolor="#eeae80"] ;
92 -> 93 ;
94 [label=<mse = 0.007<br/>samples = 2<br/>value = -0.113>, fillcolor="#eeae80"] ;
92 -> 94 ;
95 [label=<FD_moreThan10kCitizens &le; 2.291<br/>mse = 0.099<br/>samples = 56<br/>value = 0.146>, fillcolor="#edaa79"] ;
3 -> 95 ;
96 [label=<FD_moreThan10kCitizens &le; 0.087<br/>mse = 0.04<br/>samples = 54<br/>value = 0.113>, fillcolor="#eeaa7a"] ;
95 -> 96 ;
97 [label=<CP_0_diff &le; -1.073<br/>mse = 0.012<br/>samples = 40<br/>value = 0.059>, fillcolor="#eeab7b"] ;
96 -> 97 ;
98 [label=<metric_change &le; 1.2<br/>mse = 0.058<br/>samples = 6<br/>value = -0.065>, fillcolor="#eead7e"] ;
97 -> 98 ;
99 [label=<HB_bed_Non-Profit &le; 0.883<br/>mse = 0.033<br/>samples = 2<br/>value = -0.368>, fillcolor="#efb286"] ;
98 -> 99 ;
100 [label=<mse = 0.0<br/>samples = 1<br/>value = -0.551>, fillcolor="#f0b58a"] ;
99 -> 100 ;
101 [label=<mse = -0.0<br/>samples = 1<br/>value = -0.185>, fillcolor="#eeaf81"] ;
99 -> 101 ;
102 [label=<CEN_Total Population &le; -0.464<br/>mse = 0.001<br/>samples = 4<br/>value = 0.086>, fillcolor="#eeab7b"] ;
98 -> 102 ;
103 [label=<CEN_Bachelor's Degree or Higher &le; 0.739<br/>mse = 0.0<br/>samples = 3<br/>value = 0.069>, fillcolor="#eeab7b"] ;
102 -> 103 ;
104 [label=<FD_totalFireDepartments &le; -0.744<br/>mse = 0.0<br/>samples = 2<br/>value = 0.07>, fillcolor="#eeab7b"] ;
103 -> 104 ;
105 [label=<mse = 0.0<br/>samples = 1<br/>value = 0.07>, fillcolor="#eeab7b"] ;
104 -> 105 ;
106 [label=<mse = 0.0<br/>samples = 1<br/>value = 0.069>, fillcolor="#eeab7b"] ;
104 -> 106 ;
107 [label=<mse = -0.0<br/>samples = 1<br/>value = 0.067>, fillcolor="#eeab7b"] ;
103 -> 107 ;
108 [label=<mse = 0.0<br/>samples = 1<br/>value = 0.138>, fillcolor="#edaa79"] ;
102 -> 108 ;
109 [label=<S1_people_fully_vaccinated &le; 0.383<br/>mse = 0.001<br/>samples = 34<br/>value = 0.08>, fillcolor="#eeab7b"] ;
97 -> 109 ;
110 [label=<metric_change &le; 1.2<br/>mse = 0.0<br/>samples = 29<br/>value = 0.07>, fillcolor="#eeab7b"] ;
109 -> 110 ;
111 [label=<OB_Prevalence &le; -1.997<br/>mse = 0.0<br/>samples = 18<br/>value = 0.063>, fillcolor="#eeab7b"] ;
110 -> 111 ;
112 [label=<mse = 0.0<br/>samples = 1<br/>value = -0.007>, fillcolor="#eeac7d"] ;
111 -> 112 ;
113 [label=<HB_bed_State/Local Government &le; 1.421<br/>mse = 0.0<br/>samples = 17<br/>value = 0.067>, fillcolor="#eeab7b"] ;
111 -> 113 ;
114 [label=<S2_people_fully_vaccinated_per_hundred &le; -0.891<br/>mse = 0.0<br/>samples = 15<br/>value = 0.07>, fillcolor="#eeab7b"] ;
113 -> 114 ;
115 [label=<CEN_Without Health Care Coverage &le; 0.284<br/>mse = 0.0<br/>samples = 2<br/>value = 0.085>, fillcolor="#eeab7b"] ;
114 -> 115 ;
116 [label=<mse = 0.0<br/>samples = 1<br/>value = 0.081>, fillcolor="#eeab7b"] ;
115 -> 116 ;
117 [label=<mse = 0.0<br/>samples = 1<br/>value = 0.088>, fillcolor="#eeab7b"] ;
115 -> 117 ;
118 [label=<FD_moreThan10kCitizens &le; 0.011<br/>mse = 0.0<br/>samples = 13<br/>value = 0.067>, fillcolor="#eeab7b"] ;
114 -> 118 ;
119 [label=<CEN_Employment Rate &le; 1.191<br/>mse = 0.0<br/>samples = 12<br/>value = 0.066>, fillcolor="#eeab7b"] ;
118 -> 119 ;
120 [label=<HB_bed_Non-Profit &le; -1.542<br/>mse = 0.0<br/>samples = 9<br/>value = 0.064>, fillcolor="#eeab7b"] ;
119 -> 120 ;
121 [label=<mse = 0.0<br/>samples = 1<br/>value = 0.069>, fillcolor="#eeab7b"] ;
120 -> 121 ;
122 [label=<S4_people_vaccinated &le; -0.633<br/>mse = 0.0<br/>samples = 8<br/>value = 0.063>, fillcolor="#eeab7b"] ;
120 -> 122 ;
123 [label=<CP_2_diff &le; 0.346<br/>mse = 0.0<br/>samples = 3<br/>value = 0.062>, fillcolor="#eeab7b"] ;
122 -> 123 ;
124 [label=<FD_fireResponseOnly &le; -0.536<br/>mse = 0.0<br/>samples = 2<br/>value = 0.063>, fillcolor="#eeab7b"] ;
123 -> 124 ;
125 [label=<mse = 0.0<br/>samples = 1<br/>value = 0.063>, fillcolor="#eeab7b"] ;
124 -> 125 ;
126 [label=<mse = 0.0<br/>samples = 1<br/>value = 0.063>, fillcolor="#eeab7b"] ;
124 -> 126 ;
127 [label=<mse = 0.0<br/>samples = 1<br/>value = 0.062>, fillcolor="#eeab7b"] ;
123 -> 127 ;
128 [label=<HB_bed_Non-Profit &le; -0.602<br/>mse = 0.0<br/>samples = 5<br/>value = 0.064>, fillcolor="#eeab7b"] ;
122 -> 128 ;
129 [label=<S3_people_fully_vaccinated_per_hundred &le; 0.257<br/>mse = 0.0<br/>samples = 2<br/>value = 0.063>, fillcolor="#eeab7b"] ;
128 -> 129 ;
130 [label=<mse = 0.0<br/>samples = 1<br/>value = 0.062>, fillcolor="#eeab7b"] ;
129 -> 130 ;
131 [label=<mse = 0.0<br/>samples = 1<br/>value = 0.063>, fillcolor="#eeab7b"] ;
129 -> 131 ;
132 [label=<SP_State House Majority Political Affiliation &le; 0.061<br/>mse = 0.0<br/>samples = 3<br/>value = 0.065>, fillcolor="#eeab7b"] ;
128 -> 132 ;
133 [label=<mse = 0.0<br/>samples = 1<br/>value = 0.066>, fillcolor="#eeab7b"] ;
132 -> 133 ;
134 [label=<CEN_Bachelor's Degree or Higher &le; 0.336<br/>mse = 0.0<br/>samples = 2<br/>value = 0.065>, fillcolor="#eeab7b"] ;
132 -> 134 ;
135 [label=<mse = 0.0<br/>samples = 1<br/>value = 0.065>, fillcolor="#eeab7b"] ;
134 -> 135 ;
136 [label=<mse = 0.0<br/>samples = 1<br/>value = 0.065>, fillcolor="#eeab7b"] ;
134 -> 136 ;
137 [label=<FD_lessThan10kCitizens &le; -0.245<br/>mse = 0.0<br/>samples = 3<br/>value = 0.071>, fillcolor="#eeab7b"] ;
119 -> 137 ;
138 [label=<CP_2_diff &le; 0.402<br/>mse = 0.0<br/>samples = 2<br/>value = 0.069>, fillcolor="#eeab7b"] ;
137 -> 138 ;
139 [label=<mse = 0.0<br/>samples = 1<br/>value = 0.071>, fillcolor="#eeab7b"] ;
138 -> 139 ;
140 [label=<mse = -0.0<br/>samples = 1<br/>value = 0.068>, fillcolor="#eeab7b"] ;
138 -> 140 ;
141 [label=<mse = 0.0<br/>samples = 1<br/>value = 0.075>, fillcolor="#eeab7b"] ;
137 -> 141 ;
142 [label=<mse = -0.0<br/>samples = 1<br/>value = 0.084>, fillcolor="#eeab7b"] ;
118 -> 142 ;
143 [label=<S4_people_fully_vaccinated_per_hundred &le; -0.964<br/>mse = 0.0<br/>samples = 2<br/>value = 0.047>, fillcolor="#eeab7c"] ;
113 -> 143 ;
144 [label=<mse = 0.0<br/>samples = 1<br/>value = 0.064>, fillcolor="#eeab7b"] ;
143 -> 144 ;
145 [label=<mse = 0.0<br/>samples = 1<br/>value = 0.031>, fillcolor="#eeac7c"] ;
143 -> 145 ;
146 [label=<CEN_Employment Rate &le; 1.231<br/>mse = 0.0<br/>samples = 11<br/>value = 0.082>, fillcolor="#eeab7b"] ;
110 -> 146 ;
147 [label=<CP_0_diff &le; 0.637<br/>mse = 0.0<br/>samples = 10<br/>value = 0.078>, fillcolor="#eeab7b"] ;
146 -> 147 ;
148 [label=<CEN_Without Health Care Coverage &le; 0.576<br/>mse = 0.0<br/>samples = 7<br/>value = 0.084>, fillcolor="#eeab7b"] ;
147 -> 148 ;
149 [label=<CP_1_diff &le; 0.468<br/>mse = 0.0<br/>samples = 4<br/>value = 0.079>, fillcolor="#eeab7b"] ;
148 -> 149 ;
150 [label=<CEN_Total Housing Units &le; -0.276<br/>mse = 0.0<br/>samples = 3<br/>value = 0.081>, fillcolor="#eeab7b"] ;
149 -> 150 ;
151 [label=<FD_fireResponseOnly &le; -0.445<br/>mse = 0.0<br/>samples = 2<br/>value = 0.082>, fillcolor="#eeab7b"] ;
150 -> 151 ;
152 [label=<mse = 0.0<br/>samples = 1<br/>value = 0.082>, fillcolor="#eeab7b"] ;
151 -> 152 ;
153 [label=<mse = 0.0<br/>samples = 1<br/>value = 0.082>, fillcolor="#eeab7b"] ;
151 -> 153 ;
154 [label=<mse = -0.0<br/>samples = 1<br/>value = 0.08>, fillcolor="#eeab7b"] ;
150 -> 154 ;
155 [label=<mse = -0.0<br/>samples = 1<br/>value = 0.071>, fillcolor="#eeab7b"] ;
149 -> 155 ;
156 [label=<S1_people_fully_vaccinated &le; -0.306<br/>mse = 0.0<br/>samples = 3<br/>value = 0.091>, fillcolor="#eeab7b"] ;
148 -> 156 ;
157 [label=<S2_people_vaccinated &le; -0.433<br/>mse = 0.0<br/>samples = 2<br/>value = 0.089>, fillcolor="#eeab7b"] ;
156 -> 157 ;
158 [label=<mse = 0.0<br/>samples = 1<br/>value = 0.089>, fillcolor="#eeab7b"] ;
157 -> 158 ;
159 [label=<mse = 0.0<br/>samples = 1<br/>value = 0.09>, fillcolor="#eeab7b"] ;
157 -> 159 ;
160 [label=<mse = -0.0<br/>samples = 1<br/>value = 0.095>, fillcolor="#eeab7b"] ;
156 -> 160 ;
161 [label=<SP_State House Majority Political Affiliation &le; 0.061<br/>mse = 0.0<br/>samples = 3<br/>value = 0.065>, fillcolor="#eeab7b"] ;
147 -> 161 ;
162 [label=<S2_people_vaccinated_per_hundred &le; -0.93<br/>mse = 0.0<br/>samples = 2<br/>value = 0.063>, fillcolor="#eeab7b"] ;
161 -> 162 ;
163 [label=<mse = 0.0<br/>samples = 1<br/>value = 0.062>, fillcolor="#eeab7b"] ;
162 -> 163 ;
164 [label=<mse = 0.0<br/>samples = 1<br/>value = 0.063>, fillcolor="#eeab7b"] ;
162 -> 164 ;
165 [label=<mse = -0.0<br/>samples = 1<br/>value = 0.069>, fillcolor="#eeab7b"] ;
161 -> 165 ;
166 [label=<mse = 0.0<br/>samples = 1<br/>value = 0.115>, fillcolor="#eeaa7a"] ;
146 -> 166 ;
167 [label=<S2_people_vaccinated_per_hundred &le; 0.786<br/>mse = 0.002<br/>samples = 5<br/>value = 0.141>, fillcolor="#edaa79"] ;
109 -> 167 ;
168 [label=<CEN_Total Employer Establishments &le; 0.04<br/>mse = 0.003<br/>samples = 4<br/>value = 0.137>, fillcolor="#edaa79"] ;
167 -> 168 ;
169 [label=<mse = 0.0<br/>samples = 1<br/>value = 0.132>, fillcolor="#edaa7a"] ;
168 -> 169 ;
170 [label=<metric_change &le; 1.2<br/>mse = 0.003<br/>samples = 3<br/>value = 0.138>, fillcolor="#edaa79"] ;
168 -> 170 ;
171 [label=<mse = 0.005<br/>samples = 2<br/>value = 0.136>, fillcolor="#edaa7a"] ;
170 -> 171 ;
172 [label=<mse = 0.0<br/>samples = 1<br/>value = 0.144>, fillcolor="#edaa79"] ;
170 -> 172 ;
173 [label=<mse = 0.0<br/>samples = 1<br/>value = 0.159>, fillcolor="#edaa79"] ;
167 -> 173 ;
174 [label=<metric_change &le; 1.2<br/>mse = 0.085<br/>samples = 14<br/>value = 0.27>, fillcolor="#eda876"] ;
96 -> 174 ;
175 [label=<FD_lessThan10kCitizens &le; 0.468<br/>mse = 0.114<br/>samples = 8<br/>value = 0.39>, fillcolor="#eda673"] ;
174 -> 175 ;
176 [label=<FD_lessThan10kCitizens &le; 0.181<br/>mse = 0.002<br/>samples = 3<br/>value = 0.792>, fillcolor="#eba06a"] ;
175 -> 176 ;
177 [label=<mse = 0.0<br/>samples = 1<br/>value = 0.734>, fillcolor="#eca16b"] ;
176 -> 177 ;
178 [label=<CEN_Total Employer Establishments &le; 0.158<br/>mse = 0.0<br/>samples = 2<br/>value = 0.822>, fillcolor="#eba069"] ;
176 -> 178 ;
179 [label=<mse = 0.0<br/>samples = 1<br/>value = 0.832>, fillcolor="#eb9f69"] ;
178 -> 179 ;
180 [label=<mse = 0.0<br/>samples = 1<br/>value = 0.812>, fillcolor="#eba069"] ;
178 -> 180 ;
181 [label=<FD_totalFireDepartments &le; 0.544<br/>mse = 0.026<br/>samples = 5<br/>value = 0.149>, fillcolor="#edaa79"] ;
175 -> 181 ;
182 [label=<mse = 0.042<br/>samples = 2<br/>value = 0.267>, fillcolor="#eda876"] ;
181 -> 182 ;
183 [label=<SP_State House Majority Political Affiliation &le; 0.061<br/>mse = 0.0<br/>samples = 3<br/>value = 0.07>, fillcolor="#eeab7b"] ;
181 -> 183 ;
184 [label=<S1_people_fully_vaccinated_per_hundred &le; 0.092<br/>mse = 0.0<br/>samples = 2<br/>value = 0.064>, fillcolor="#eeab7b"] ;
183 -> 184 ;
185 [label=<mse = 0.0<br/>samples = 1<br/>value = 0.064>, fillcolor="#eeab7b"] ;
184 -> 185 ;
186 [label=<mse = -0.0<br/>samples = 1<br/>value = 0.064>, fillcolor="#eeab7b"] ;
184 -> 186 ;
187 [label=<mse = -0.0<br/>samples = 1<br/>value = 0.081>, fillcolor="#eeab7b"] ;
183 -> 187 ;
188 [label=<S4_people_vaccinated_per_hundred &le; 0.973<br/>mse = 0.001<br/>samples = 6<br/>value = 0.109>, fillcolor="#eeaa7a"] ;
174 -> 188 ;
189 [label=<S2_people_vaccinated &le; -0.245<br/>mse = 0.0<br/>samples = 5<br/>value = 0.1>, fillcolor="#eeab7a"] ;
188 -> 189 ;
190 [label=<mse = 0.0<br/>samples = 1<br/>value = 0.083>, fillcolor="#eeab7b"] ;
189 -> 190 ;
191 [label=<HB_bed_For-Profit &le; -0.156<br/>mse = 0.0<br/>samples = 4<br/>value = 0.104>, fillcolor="#eeab7a"] ;
189 -> 191 ;
192 [label=<HB_bed_For-Profit &le; -0.678<br/>mse = 0.0<br/>samples = 2<br/>value = 0.1>, fillcolor="#eeab7a"] ;
191 -> 192 ;
193 [label=<mse = 0.0<br/>samples = 1<br/>value = 0.097>, fillcolor="#eeab7a"] ;
192 -> 193 ;
194 [label=<mse = 0.0<br/>samples = 1<br/>value = 0.103>, fillcolor="#eeab7a"] ;
192 -> 194 ;
195 [label=<S3_people_vaccinated_per_hundred &le; -0.091<br/>mse = 0.0<br/>samples = 2<br/>value = 0.108>, fillcolor="#eeaa7a"] ;
191 -> 195 ;
196 [label=<mse = 0.0<br/>samples = 1<br/>value = 0.105>, fillcolor="#eeab7a"] ;
195 -> 196 ;
197 [label=<mse = 0.0<br/>samples = 1<br/>value = 0.111>, fillcolor="#eeaa7a"] ;
195 -> 197 ;
198 [label=<mse = -0.0<br/>samples = 1<br/>value = 0.156>, fillcolor="#edaa79"] ;
188 -> 198 ;
199 [label=<metric_change &le; 1.2<br/>mse = 0.889<br/>samples = 2<br/>value = 1.033>, fillcolor="#eb9c64"] ;
95 -> 199 ;
200 [label=<mse = 0.0<br/>samples = 1<br/>value = 1.976>, fillcolor="#e88e4d"] ;
199 -> 200 ;
201 [label=<mse = -0.0<br/>samples = 1<br/>value = 0.091>, fillcolor="#eeab7b"] ;
199 -> 201 ;
202 [label=<metric_change &le; 0.011<br/>mse = 2.306<br/>samples = 3<br/>value = -0.939>, fillcolor="#f1bb93"] ;
2 -> 202 ;
203 [label=<mse = 2.692<br/>samples = 2<br/>value = -1.444>, fillcolor="#f2c2a0"] ;
202 -> 203 ;
204 [label=<mse = -0.0<br/>samples = 1<br/>value = 0.073>, fillcolor="#eeab7b"] ;
202 -> 204 ;
205 [label=<metric_change &le; 1.2<br/>mse = 1.183<br/>samples = 4<br/>value = 0.968>, fillcolor="#eb9d65"] ;
1 -> 205 ;
206 [label=<metric_change &le; 0.011<br/>mse = 1.219<br/>samples = 3<br/>value = 1.267>, fillcolor="#ea995e"] ;
205 -> 206 ;
207 [label=<metric_change &le; -1.178<br/>mse = 0.04<br/>samples = 2<br/>value = 0.495>, fillcolor="#eca571"] ;
206 -> 207 ;
208 [label=<mse = 0.0<br/>samples = 1<br/>value = 0.695>, fillcolor="#eca16c"] ;
207 -> 208 ;
209 [label=<mse = 0.0<br/>samples = 1<br/>value = 0.295>, fillcolor="#eda876"] ;
207 -> 209 ;
210 [label=<mse = -0.0<br/>samples = 1<br/>value = 2.812>, fillcolor="#e58139"] ;
206 -> 210 ;
211 [label=<mse = 0.0<br/>samples = 1<br/>value = 0.071>, fillcolor="#eeab7b"] ;
205 -> 211 ;
212 [label=<metric_change &le; 0.011<br/>mse = 21.721<br/>samples = 4<br/>value = -2.829>, fillcolor="#f7d8c1"] ;
0 -> 212 [labeldistance=2.5, labelangle=-45, headlabel="False"] ;
213 [label=<mse = 30.112<br/>samples = 2<br/>value = -5.4>, fillcolor="#ffffff"] ;
212 -> 213 ;
214 [label=<mse = 0.107<br/>samples = 2<br/>value = -0.258>, fillcolor="#efb083"] ;
212 -> 214 ;
}
