digraph Tree {
node [shape=box, style="filled, rounded", color="black", fontname=helvetica] ;
edge [fontname=helvetica] ;
0 [label=<CEN_Total Employer Establishments &le; 2.738<br/>mse = 1.0<br/>samples = 231<br/>value = 0.0>, fillcolor="#f9e4d5"] ;
1 [label=<S4_people_fully_vaccinated &le; 0.778<br/>mse = 0.523<br/>samples = 222<br/>value = -0.062>, fillcolor="#fae5d6"] ;
0 -> 1 [labeldistance=2.5, labelangle=45, headlabel="True"] ;
2 [label=<metric_change &le; 0.006<br/>mse = 0.448<br/>samples = 207<br/>value = -0.004>, fillcolor="#f9e4d5"] ;
1 -> 2 ;
3 [label=<CEN_Median Household Income &le; 1.984<br/>mse = 0.144<br/>samples = 110<br/>value = -0.174>, fillcolor="#fae6d8"] ;
2 -> 3 ;
4 [label=<FD_lessThan10kCitizens &le; -0.027<br/>mse = 0.138<br/>samples = 105<br/>value = -0.153>, fillcolor="#fae6d7"] ;
3 -> 4 ;
5 [label=<CP_2_diff &le; -0.368<br/>mse = 0.036<br/>samples = 65<br/>value = -0.079>, fillcolor="#fae5d6"] ;
4 -> 5 ;
6 [label=<metric_change &le; -0.642<br/>mse = 0.04<br/>samples = 7<br/>value = -0.258>, fillcolor="#fae7d9"] ;
5 -> 6 ;
7 [label=<S4_people_vaccinated &le; -0.473<br/>mse = 0.011<br/>samples = 4<br/>value = -0.139>, fillcolor="#fae6d7"] ;
6 -> 7 ;
8 [label=<CP_2_diff &le; -3.443<br/>mse = 0.0<br/>samples = 2<br/>value = -0.1>, fillcolor="#fae5d6"] ;
7 -> 8 ;
9 [label=<mse = 0.0<br/>samples = 1<br/>value = -0.08>, fillcolor="#fae5d6"] ;
8 -> 9 ;
10 [label=<mse = 0.0<br/>samples = 1<br/>value = -0.121>, fillcolor="#fae5d7"] ;
8 -> 10 ;
11 [label=<mse = 0.02<br/>samples = 2<br/>value = -0.178>, fillcolor="#fae6d8"] ;
7 -> 11 ;
12 [label=<FD_totalFireDepartments &le; -0.748<br/>mse = 0.034<br/>samples = 3<br/>value = -0.416>, fillcolor="#fae9dc"] ;
6 -> 12 ;
13 [label=<mse = 0.018<br/>samples = 2<br/>value = -0.311>, fillcolor="#fae8da"] ;
12 -> 13 ;
14 [label=<mse = 0.0<br/>samples = 1<br/>value = -0.624>, fillcolor="#fbebe0"] ;
12 -> 14 ;
15 [label=<CEN_Hispanic or Latino (of any race) &le; 0.009<br/>mse = 0.032<br/>samples = 58<br/>value = -0.058>, fillcolor="#fae5d6"] ;
5 -> 15 ;
16 [label=<S2_people_fully_vaccinated_per_hundred &le; -0.647<br/>mse = 0.029<br/>samples = 56<br/>value = -0.068>, fillcolor="#fae5d6"] ;
15 -> 16 ;
17 [label=<metric_change &le; -1.506<br/>mse = 0.046<br/>samples = 20<br/>value = 0.006>, fillcolor="#f9e4d5"] ;
16 -> 17 ;
18 [label=<mse = 0.0<br/>samples = 1<br/>value = 0.389>, fillcolor="#f9e0ce"] ;
17 -> 18 ;
19 [label=<CP_1_diff &le; 0.439<br/>mse = 0.04<br/>samples = 19<br/>value = -0.014>, fillcolor="#f9e4d5"] ;
17 -> 19 ;
20 [label=<CEN_Median Household Income &le; -0.611<br/>mse = 0.013<br/>samples = 15<br/>value = -0.059>, fillcolor="#fae5d6"] ;
19 -> 20 ;
21 [label=<metric_change &le; -1.074<br/>mse = 0.022<br/>samples = 6<br/>value = -0.003>, fillcolor="#f9e4d5"] ;
20 -> 21 ;
22 [label=<mse = 0.0<br/>samples = 1<br/>value = -0.159>, fillcolor="#fae6d8"] ;
21 -> 22 ;
23 [label=<metric_change &le; -0.642<br/>mse = 0.021<br/>samples = 5<br/>value = 0.028>, fillcolor="#f9e4d4"] ;
21 -> 23 ;
24 [label=<mse = 0.0<br/>samples = 1<br/>value = 0.26>, fillcolor="#f9e1d0"] ;
23 -> 24 ;
25 [label=<FD_adminAndFireResponse &le; -0.091<br/>mse = 0.009<br/>samples = 4<br/>value = -0.03>, fillcolor="#fae4d5"] ;
23 -> 25 ;
26 [label=<mse = 0.004<br/>samples = 2<br/>value = 0.048>, fillcolor="#f9e4d4"] ;
25 -> 26 ;
27 [label=<mse = 0.003<br/>samples = 2<br/>value = -0.108>, fillcolor="#fae5d7"] ;
25 -> 27 ;
28 [label=<metric_change &le; -1.074<br/>mse = 0.004<br/>samples = 9<br/>value = -0.096>, fillcolor="#fae5d6"] ;
20 -> 28 ;
29 [label=<S2_people_vaccinated &le; -0.559<br/>mse = 0.002<br/>samples = 3<br/>value = -0.118>, fillcolor="#fae5d7"] ;
28 -> 29 ;
30 [label=<mse = 0.002<br/>samples = 2<br/>value = -0.101>, fillcolor="#fae5d7"] ;
29 -> 30 ;
31 [label=<mse = 0.0<br/>samples = 1<br/>value = -0.152>, fillcolor="#fae6d7"] ;
29 -> 31 ;
32 [label=<CEN_Total Employer Establishments &le; -0.513<br/>mse = 0.004<br/>samples = 6<br/>value = -0.085>, fillcolor="#fae5d6"] ;
28 -> 32 ;
33 [label=<metric_change &le; -0.642<br/>mse = 0.003<br/>samples = 5<br/>value = -0.103>, fillcolor="#fae5d7"] ;
32 -> 33 ;
34 [label=<mse = 0.0<br/>samples = 1<br/>value = -0.045>, fillcolor="#fae5d6"] ;
33 -> 34 ;
35 [label=<CEN_Total Employer Establishments &le; -0.706<br/>mse = 0.003<br/>samples = 4<br/>value = -0.117>, fillcolor="#fae5d7"] ;
33 -> 35 ;
36 [label=<mse = 0.004<br/>samples = 2<br/>value = -0.134>, fillcolor="#fae6d7"] ;
35 -> 36 ;
37 [label=<mse = 0.002<br/>samples = 2<br/>value = -0.101>, fillcolor="#fae5d6"] ;
35 -> 37 ;
38 [label=<mse = 0.0<br/>samples = 1<br/>value = 0.002>, fillcolor="#f9e4d5"] ;
32 -> 38 ;
39 [label=<metric_change &le; -0.642<br/>mse = 0.105<br/>samples = 4<br/>value = 0.154>, fillcolor="#f9e2d2"] ;
19 -> 39 ;
40 [label=<metric_change &le; -1.074<br/>mse = 0.133<br/>samples = 3<br/>value = 0.196>, fillcolor="#f9e2d1"] ;
39 -> 40 ;
41 [label=<mse = 0.0<br/>samples = 1<br/>value = 0.263>, fillcolor="#f9e1d0"] ;
40 -> 41 ;
42 [label=<mse = 0.196<br/>samples = 2<br/>value = 0.162>, fillcolor="#f9e2d2"] ;
40 -> 42 ;
43 [label=<mse = -0.0<br/>samples = 1<br/>value = 0.029>, fillcolor="#f9e4d4"] ;
39 -> 43 ;
44 [label=<metric_change &le; -1.074<br/>mse = 0.015<br/>samples = 36<br/>value = -0.11>, fillcolor="#fae5d7"] ;
16 -> 44 ;
45 [label=<CEN_Total Population &le; -0.046<br/>mse = 0.03<br/>samples = 6<br/>value = -0.244>, fillcolor="#fae7d9"] ;
44 -> 45 ;
46 [label=<FD_lessThan10kCitizens &le; -0.675<br/>mse = 0.006<br/>samples = 5<br/>value = -0.173>, fillcolor="#fae6d8"] ;
45 -> 46 ;
47 [label=<FD_moreThan10kCitizens &le; -0.446<br/>mse = 0.0<br/>samples = 2<br/>value = -0.257>, fillcolor="#fae7d9"] ;
46 -> 47 ;
48 [label=<mse = 0.0<br/>samples = 1<br/>value = -0.236>, fillcolor="#fae7d9"] ;
47 -> 48 ;
49 [label=<mse = 0.0<br/>samples = 1<br/>value = -0.279>, fillcolor="#fae7da"] ;
47 -> 49 ;
50 [label=<CP_2_diff &le; 0.197<br/>mse = 0.001<br/>samples = 3<br/>value = -0.117>, fillcolor="#fae5d7"] ;
46 -> 50 ;
51 [label=<S3_people_vaccinated_per_hundred &le; 0.059<br/>mse = 0.0<br/>samples = 2<br/>value = -0.138>, fillcolor="#fae6d7"] ;
50 -> 51 ;
52 [label=<mse = 0.0<br/>samples = 1<br/>value = -0.121>, fillcolor="#fae5d7"] ;
51 -> 52 ;
53 [label=<mse = -0.0<br/>samples = 1<br/>value = -0.155>, fillcolor="#fae6d7"] ;
51 -> 53 ;
54 [label=<mse = 0.0<br/>samples = 1<br/>value = -0.076>, fillcolor="#fae5d6"] ;
50 -> 54 ;
55 [label=<mse = 0.0<br/>samples = 1<br/>value = -0.6>, fillcolor="#fbebdf"] ;
45 -> 55 ;
56 [label=<CEN_Bachelor's Degree or Higher &le; 0.244<br/>mse = 0.007<br/>samples = 30<br/>value = -0.083>, fillcolor="#fae5d6"] ;
44 -> 56 ;
57 [label=<S1_people_fully_vaccinated &le; -0.871<br/>mse = 0.005<br/>samples = 16<br/>value = -0.117>, fillcolor="#fae5d7"] ;
56 -> 57 ;
58 [label=<CP_0_diff &le; 1.223<br/>mse = 0.005<br/>samples = 5<br/>value = -0.163>, fillcolor="#fae6d8"] ;
57 -> 58 ;
59 [label=<mse = 0.001<br/>samples = 2<br/>value = -0.14>, fillcolor="#fae6d7"] ;
58 -> 59 ;
60 [label=<metric_change &le; -0.642<br/>mse = 0.007<br/>samples = 3<br/>value = -0.178>, fillcolor="#fae6d8"] ;
58 -> 60 ;
61 [label=<mse = 0.0<br/>samples = 1<br/>value = -0.243>, fillcolor="#fae7d9"] ;
60 -> 61 ;
62 [label=<mse = 0.007<br/>samples = 2<br/>value = -0.145>, fillcolor="#fae6d7"] ;
60 -> 62 ;
63 [label=<HB_bed_State/Local Government &le; -0.355<br/>mse = 0.003<br/>samples = 11<br/>value = -0.097>, fillcolor="#fae5d6"] ;
57 -> 63 ;
64 [label=<S1_people_vaccinated &le; -0.635<br/>mse = 0.005<br/>samples = 6<br/>value = -0.117>, fillcolor="#fae5d7"] ;
63 -> 64 ;
65 [label=<metric_change &le; -0.642<br/>mse = 0.001<br/>samples = 4<br/>value = -0.107>, fillcolor="#fae5d7"] ;
64 -> 65 ;
66 [label=<CEN_Median Household Income &le; -0.1<br/>mse = 0.001<br/>samples = 2<br/>value = -0.099>, fillcolor="#fae5d6"] ;
65 -> 66 ;
67 [label=<mse = 0.0<br/>samples = 1<br/>value = -0.074>, fillcolor="#fae5d6"] ;
66 -> 67 ;
68 [label=<mse = 0.0<br/>samples = 1<br/>value = -0.125>, fillcolor="#fae5d7"] ;
66 -> 68 ;
69 [label=<S4_people_fully_vaccinated &le; -0.695<br/>mse = 0.0<br/>samples = 2<br/>value = -0.116>, fillcolor="#fae5d7"] ;
65 -> 69 ;
70 [label=<mse = 0.0<br/>samples = 1<br/>value = -0.099>, fillcolor="#fae5d6"] ;
69 -> 70 ;
71 [label=<mse = -0.0<br/>samples = 1<br/>value = -0.132>, fillcolor="#fae6d7"] ;
69 -> 71 ;
72 [label=<mse = 0.012<br/>samples = 2<br/>value = -0.135>, fillcolor="#fae6d7"] ;
64 -> 72 ;
73 [label=<metric_change &le; -0.642<br/>mse = 0.001<br/>samples = 5<br/>value = -0.073>, fillcolor="#fae5d6"] ;
63 -> 73 ;
74 [label=<mse = 0.0<br/>samples = 1<br/>value = -0.113>, fillcolor="#fae5d7"] ;
73 -> 74 ;
75 [label=<FD_fireResponseOnly &le; -0.415<br/>mse = 0.0<br/>samples = 4<br/>value = -0.063>, fillcolor="#fae5d6"] ;
73 -> 75 ;
76 [label=<S4_people_vaccinated_per_hundred &le; -1.072<br/>mse = 0.0<br/>samples = 3<br/>value = -0.072>, fillcolor="#fae5d6"] ;
75 -> 76 ;
77 [label=<mse = 0.0<br/>samples = 1<br/>value = -0.09>, fillcolor="#fae5d6"] ;
76 -> 77 ;
78 [label=<mse = 0.0<br/>samples = 2<br/>value = -0.063>, fillcolor="#fae5d6"] ;
76 -> 78 ;
79 [label=<mse = 0.0<br/>samples = 1<br/>value = -0.036>, fillcolor="#fae4d5"] ;
75 -> 79 ;
80 [label=<S2_people_vaccinated &le; 0.028<br/>mse = 0.007<br/>samples = 14<br/>value = -0.043>, fillcolor="#fae5d5"] ;
56 -> 80 ;
81 [label=<S1_people_fully_vaccinated_per_hundred &le; 0.235<br/>mse = 0.005<br/>samples = 10<br/>value = -0.055>, fillcolor="#fae5d6"] ;
80 -> 81 ;
82 [label=<metric_change &le; -0.642<br/>mse = 0.007<br/>samples = 6<br/>value = -0.062>, fillcolor="#fae5d6"] ;
81 -> 82 ;
83 [label=<mse = 0.0<br/>samples = 1<br/>value = -0.026>, fillcolor="#fae4d5"] ;
82 -> 83 ;
84 [label=<S2_people_fully_vaccinated &le; -0.696<br/>mse = 0.008<br/>samples = 5<br/>value = -0.069>, fillcolor="#fae5d6"] ;
82 -> 84 ;
85 [label=<mse = 0.0<br/>samples = 2<br/>value = -0.08>, fillcolor="#fae5d6"] ;
84 -> 85 ;
86 [label=<CEN_Total Housing Units &le; -0.6<br/>mse = 0.013<br/>samples = 3<br/>value = -0.061>, fillcolor="#fae5d6"] ;
84 -> 86 ;
87 [label=<mse = 0.0<br/>samples = 1<br/>value = -0.056>, fillcolor="#fae5d6"] ;
86 -> 87 ;
88 [label=<mse = 0.02<br/>samples = 2<br/>value = -0.064>, fillcolor="#fae5d6"] ;
86 -> 88 ;
89 [label=<metric_change &le; -0.642<br/>mse = 0.001<br/>samples = 4<br/>value = -0.045>, fillcolor="#fae5d5"] ;
81 -> 89 ;
90 [label=<mse = 0.0<br/>samples = 1<br/>value = -0.083>, fillcolor="#fae5d6"] ;
89 -> 90 ;
91 [label=<CP_1_diff &le; 1.252<br/>mse = 0.001<br/>samples = 3<br/>value = -0.032>, fillcolor="#fae4d5"] ;
89 -> 91 ;
92 [label=<mse = 0.0<br/>samples = 1<br/>value = -0.042>, fillcolor="#fae5d5"] ;
91 -> 92 ;
93 [label=<mse = 0.001<br/>samples = 2<br/>value = -0.027>, fillcolor="#fae4d5"] ;
91 -> 93 ;
94 [label=<metric_change &le; -0.642<br/>mse = 0.013<br/>samples = 4<br/>value = -0.013>, fillcolor="#f9e4d5"] ;
80 -> 94 ;
95 [label=<mse = 0.0<br/>samples = 2<br/>value = -0.02>, fillcolor="#f9e4d5"] ;
94 -> 95 ;
96 [label=<mse = 0.025<br/>samples = 2<br/>value = -0.007>, fillcolor="#f9e4d5"] ;
94 -> 96 ;
97 [label=<S3_people_vaccinated &le; 0.03<br/>mse = 0.012<br/>samples = 2<br/>value = 0.246>, fillcolor="#f9e1d0"] ;
15 -> 97 ;
98 [label=<mse = 0.0<br/>samples = 1<br/>value = 0.355>, fillcolor="#f9e0ce"] ;
97 -> 98 ;
99 [label=<mse = -0.0<br/>samples = 1<br/>value = 0.137>, fillcolor="#f9e3d2"] ;
97 -> 99 ;
100 [label=<CP_2_diff &le; 0.22<br/>mse = 0.281<br/>samples = 40<br/>value = -0.272>, fillcolor="#fae7da"] ;
4 -> 100 ;
101 [label=<CP_0_diff &le; 0.544<br/>mse = 0.282<br/>samples = 31<br/>value = -0.213>, fillcolor="#fae6d8"] ;
100 -> 101 ;
102 [label=<metric_change &le; -1.506<br/>mse = 0.361<br/>samples = 22<br/>value = -0.254>, fillcolor="#fae7d9"] ;
101 -> 102 ;
103 [label=<CEN_Hispanic or Latino (of any race) &le; -0.357<br/>mse = 0.119<br/>samples = 2<br/>value = -0.065>, fillcolor="#fae5d6"] ;
102 -> 103 ;
104 [label=<mse = 0.0<br/>samples = 1<br/>value = -0.41>, fillcolor="#fae9dc"] ;
103 -> 104 ;
105 [label=<mse = 0.0<br/>samples = 1<br/>value = 0.281>, fillcolor="#f9e1d0"] ;
103 -> 105 ;
106 [label=<HB_bed_Non-Profit &le; 0.516<br/>mse = 0.382<br/>samples = 20<br/>value = -0.273>, fillcolor="#fae7da"] ;
102 -> 106 ;
107 [label=<CEN_Bachelor's Degree or Higher &le; -1.433<br/>mse = 0.43<br/>samples = 17<br/>value = -0.237>, fillcolor="#fae7d9"] ;
106 -> 107 ;
108 [label=<mse = 0.0<br/>samples = 1<br/>value = 0.022>, fillcolor="#f9e4d4"] ;
107 -> 108 ;
109 [label=<CP_0_diff &le; -0.648<br/>mse = 0.453<br/>samples = 16<br/>value = -0.253>, fillcolor="#fae7d9"] ;
107 -> 109 ;
110 [label=<metric_change &le; -1.074<br/>mse = 0.07<br/>samples = 7<br/>value = -0.173>, fillcolor="#fae6d8"] ;
109 -> 110 ;
111 [label=<mse = 0.0<br/>samples = 1<br/>value = -0.428>, fillcolor="#fae9dc"] ;
110 -> 111 ;
112 [label=<OB_Prevalence &le; -0.019<br/>mse = 0.069<br/>samples = 6<br/>value = -0.131>, fillcolor="#fae6d7"] ;
110 -> 112 ;
113 [label=<mse = 0.099<br/>samples = 2<br/>value = 0.012>, fillcolor="#f9e4d4"] ;
112 -> 113 ;
114 [label=<metric_change &le; -0.642<br/>mse = 0.04<br/>samples = 4<br/>value = -0.202>, fillcolor="#fae6d8"] ;
112 -> 114 ;
115 [label=<mse = 0.0<br/>samples = 2<br/>value = -0.027>, fillcolor="#fae4d5"] ;
114 -> 115 ;
116 [label=<mse = 0.018<br/>samples = 2<br/>value = -0.377>, fillcolor="#fae8db"] ;
114 -> 116 ;
117 [label=<metric_change &le; -0.642<br/>mse = 0.741<br/>samples = 9<br/>value = -0.316>, fillcolor="#fae8da"] ;
109 -> 117 ;
118 [label=<S1_people_vaccinated_per_hundred &le; -0.513<br/>mse = 0.062<br/>samples = 3<br/>value = -0.428>, fillcolor="#fae9dc"] ;
117 -> 118 ;
119 [label=<mse = 0.0<br/>samples = 1<br/>value = -0.767>, fillcolor="#fbede2"] ;
118 -> 119 ;
120 [label=<CP_1_diff &le; -0.093<br/>mse = 0.007<br/>samples = 2<br/>value = -0.258>, fillcolor="#fae7d9"] ;
118 -> 120 ;
121 [label=<mse = 0.0<br/>samples = 1<br/>value = -0.174>, fillcolor="#fae6d8"] ;
120 -> 121 ;
122 [label=<mse = -0.0<br/>samples = 1<br/>value = -0.342>, fillcolor="#fae8db"] ;
120 -> 122 ;
123 [label=<S1_people_vaccinated_per_hundred &le; -0.513<br/>mse = 1.072<br/>samples = 6<br/>value = -0.26>, fillcolor="#fae7d9"] ;
117 -> 123 ;
124 [label=<mse = 3.002<br/>samples = 2<br/>value = -0.045>, fillcolor="#fae5d5"] ;
123 -> 124 ;
125 [label=<HB_bed_State/Local Government &le; 0.531<br/>mse = 0.072<br/>samples = 4<br/>value = -0.368>, fillcolor="#fae8db"] ;
123 -> 125 ;
126 [label=<mse = 0.13<br/>samples = 2<br/>value = -0.365>, fillcolor="#fae8db"] ;
125 -> 126 ;
127 [label=<mse = 0.013<br/>samples = 2<br/>value = -0.37>, fillcolor="#fae8db"] ;
125 -> 127 ;
128 [label=<metric_change &le; -0.858<br/>mse = 0.056<br/>samples = 3<br/>value = -0.478>, fillcolor="#fbe9dd"] ;
106 -> 128 ;
129 [label=<mse = 0.0<br/>samples = 1<br/>value = -0.331>, fillcolor="#fae8db"] ;
128 -> 129 ;
130 [label=<mse = 0.068<br/>samples = 2<br/>value = -0.551>, fillcolor="#fbeade"] ;
128 -> 130 ;
131 [label=<metric_change &le; -1.074<br/>mse = 0.074<br/>samples = 9<br/>value = -0.112>, fillcolor="#fae5d7"] ;
101 -> 131 ;
132 [label=<OB_Prevalence &le; 1.093<br/>mse = 0.064<br/>samples = 4<br/>value = -0.304>, fillcolor="#fae8da"] ;
131 -> 132 ;
133 [label=<CP_0_diff &le; 0.612<br/>mse = 0.012<br/>samples = 2<br/>value = -0.532>, fillcolor="#fbeade"] ;
132 -> 133 ;
134 [label=<mse = 0.0<br/>samples = 1<br/>value = -0.422>, fillcolor="#fae9dc"] ;
133 -> 134 ;
135 [label=<mse = 0.0<br/>samples = 1<br/>value = -0.642>, fillcolor="#fbebe0"] ;
133 -> 135 ;
136 [label=<CEN_Bachelor's Degree or Higher &le; -1.223<br/>mse = 0.012<br/>samples = 2<br/>value = -0.075>, fillcolor="#fae5d6"] ;
132 -> 136 ;
137 [label=<mse = 0.0<br/>samples = 1<br/>value = -0.183>, fillcolor="#fae6d8"] ;
136 -> 137 ;
138 [label=<mse = -0.0<br/>samples = 1<br/>value = 0.032>, fillcolor="#f9e4d4"] ;
136 -> 138 ;
139 [label=<OB_Prevalence &le; 1.093<br/>mse = 0.03<br/>samples = 5<br/>value = 0.042>, fillcolor="#f9e4d4"] ;
131 -> 139 ;
140 [label=<metric_change &le; -0.642<br/>mse = 0.025<br/>samples = 3<br/>value = 0.127>, fillcolor="#f9e3d2"] ;
139 -> 140 ;
141 [label=<mse = 0.0<br/>samples = 1<br/>value = 0.279>, fillcolor="#f9e1d0"] ;
140 -> 141 ;
142 [label=<CEN_Total Population &le; 0.084<br/>mse = 0.02<br/>samples = 2<br/>value = 0.051>, fillcolor="#f9e4d4"] ;
140 -> 142 ;
143 [label=<mse = 0.0<br/>samples = 1<br/>value = -0.092>, fillcolor="#fae5d6"] ;
142 -> 143 ;
144 [label=<mse = 0.0<br/>samples = 1<br/>value = 0.194>, fillcolor="#f9e2d1"] ;
142 -> 144 ;
145 [label=<metric_change &le; -0.642<br/>mse = 0.009<br/>samples = 2<br/>value = -0.086>, fillcolor="#fae5d6"] ;
139 -> 145 ;
146 [label=<mse = 0.0<br/>samples = 1<br/>value = -0.18>, fillcolor="#fae6d8"] ;
145 -> 146 ;
147 [label=<mse = 0.0<br/>samples = 1<br/>value = 0.008>, fillcolor="#f9e4d5"] ;
145 -> 147 ;
148 [label=<metric_change &le; -1.074<br/>mse = 0.223<br/>samples = 9<br/>value = -0.475>, fillcolor="#fbe9dd"] ;
100 -> 148 ;
149 [label=<metric_change &le; -1.506<br/>mse = 0.131<br/>samples = 4<br/>value = -0.718>, fillcolor="#fbece1"] ;
148 -> 149 ;
150 [label=<HB_bed_For-Profit &le; -0.775<br/>mse = 0.057<br/>samples = 2<br/>value = -0.419>, fillcolor="#fae9dc"] ;
149 -> 150 ;
151 [label=<mse = 0.0<br/>samples = 1<br/>value = -0.18>, fillcolor="#fae6d8"] ;
150 -> 151 ;
152 [label=<mse = 0.0<br/>samples = 1<br/>value = -0.658>, fillcolor="#fbece0"] ;
150 -> 152 ;
153 [label=<S3_people_fully_vaccinated_per_hundred &le; 0.409<br/>mse = 0.027<br/>samples = 2<br/>value = -1.017>, fillcolor="#fcf0e7"] ;
149 -> 153 ;
154 [label=<mse = 0.0<br/>samples = 1<br/>value = -1.18>, fillcolor="#fcf1ea"] ;
153 -> 154 ;
155 [label=<mse = 0.0<br/>samples = 1<br/>value = -0.853>, fillcolor="#fbeee4"] ;
153 -> 155 ;
156 [label=<S2_people_fully_vaccinated &le; 0.085<br/>mse = 0.211<br/>samples = 5<br/>value = -0.281>, fillcolor="#fae7da"] ;
148 -> 156 ;
157 [label=<mse = 0.062<br/>samples = 2<br/>value = -0.079>, fillcolor="#fae5d6"] ;
156 -> 157 ;
158 [label=<metric_change &le; -0.642<br/>mse = 0.265<br/>samples = 3<br/>value = -0.415>, fillcolor="#fae9dc"] ;
156 -> 158 ;
159 [label=<mse = 0.108<br/>samples = 2<br/>value = -0.104>, fillcolor="#fae5d7"] ;
158 -> 159 ;
160 [label=<mse = 0.0<br/>samples = 1<br/>value = -1.037>, fillcolor="#fcf0e7"] ;
158 -> 160 ;
161 [label=<CEN_Employment Rate &le; 1.019<br/>mse = 0.043<br/>samples = 5<br/>value = -0.63>, fillcolor="#fbebe0"] ;
3 -> 161 ;
162 [label=<metric_change &le; -0.858<br/>mse = 0.049<br/>samples = 3<br/>value = -0.551>, fillcolor="#fbeadf"] ;
161 -> 162 ;
163 [label=<mse = 0.0<br/>samples = 1<br/>value = -0.622>, fillcolor="#fbebe0"] ;
162 -> 163 ;
164 [label=<mse = 0.07<br/>samples = 2<br/>value = -0.516>, fillcolor="#fbeade"] ;
162 -> 164 ;
165 [label=<metric_change &le; -1.074<br/>mse = 0.011<br/>samples = 2<br/>value = -0.748>, fillcolor="#fbede2"] ;
161 -> 165 ;
166 [label=<mse = 0.0<br/>samples = 1<br/>value = -0.643>, fillcolor="#fbebe0"] ;
165 -> 166 ;
167 [label=<mse = -0.0<br/>samples = 1<br/>value = -0.852>, fillcolor="#fbeee4"] ;
165 -> 167 ;
168 [label=<FD_adminAndFireResponse &le; 0.632<br/>mse = 0.724<br/>samples = 97<br/>value = 0.189>, fillcolor="#f9e2d1"] ;
2 -> 168 ;
169 [label=<S2_people_vaccinated_per_hundred &le; -1.26<br/>mse = 0.172<br/>samples = 79<br/>value = 0.045>, fillcolor="#f9e4d4"] ;
168 -> 169 ;
170 [label=<metric_change &le; 0.653<br/>mse = 0.566<br/>samples = 8<br/>value = 0.553>, fillcolor="#f8decb"] ;
169 -> 170 ;
171 [label=<CEN_Without Health Care Coverage &le; 0.983<br/>mse = 0.583<br/>samples = 4<br/>value = 1.073>, fillcolor="#f7d8c2"] ;
170 -> 171 ;
172 [label=<S4_people_fully_vaccinated_per_hundred &le; -1.06<br/>mse = 0.516<br/>samples = 3<br/>value = 1.329>, fillcolor="#f6d5bd"] ;
171 -> 172 ;
173 [label=<mse = 0.0<br/>samples = 1<br/>value = 1.12>, fillcolor="#f7d7c1"] ;
172 -> 173 ;
174 [label=<mse = 0.741<br/>samples = 2<br/>value = 1.433>, fillcolor="#f6d4bb"] ;
172 -> 174 ;
175 [label=<mse = 0.0<br/>samples = 1<br/>value = 0.305>, fillcolor="#f9e1cf"] ;
171 -> 175 ;
176 [label=<CEN_Without Health Care Coverage &le; 0.293<br/>mse = 0.008<br/>samples = 4<br/>value = 0.032>, fillcolor="#f9e4d4"] ;
170 -> 176 ;
177 [label=<mse = 0.014<br/>samples = 2<br/>value = 0.058>, fillcolor="#f9e3d4"] ;
176 -> 177 ;
178 [label=<FD_totalFireDepartments &le; -0.207<br/>mse = 0.0<br/>samples = 2<br/>value = 0.006>, fillcolor="#f9e4d5"] ;
176 -> 178 ;
179 [label=<mse = 0.0<br/>samples = 1<br/>value = 0.006>, fillcolor="#f9e4d5"] ;
178 -> 179 ;
180 [label=<mse = 0.0<br/>samples = 1<br/>value = 0.006>, fillcolor="#f9e4d5"] ;
178 -> 180 ;
181 [label=<CEN_Hispanic or Latino (of any race) &le; 0.366<br/>mse = 0.095<br/>samples = 71<br/>value = -0.013>, fillcolor="#f9e4d5"] ;
169 -> 181 ;
182 [label=<SP_State Senate Majority Political Affiliation &le; 2.711<br/>mse = 0.077<br/>samples = 70<br/>value = 0.004>, fillcolor="#f9e4d5"] ;
181 -> 182 ;
183 [label=<HB_bed_For-Profit &le; 2.147<br/>mse = 0.051<br/>samples = 68<br/>value = -0.015>, fillcolor="#f9e4d5"] ;
182 -> 183 ;
184 [label=<S1_people_fully_vaccinated &le; 1.071<br/>mse = 0.034<br/>samples = 65<br/>value = -0.031>, fillcolor="#fae4d5"] ;
183 -> 184 ;
185 [label=<S1_people_fully_vaccinated &le; 0.764<br/>mse = 0.029<br/>samples = 64<br/>value = -0.04>, fillcolor="#fae5d5"] ;
184 -> 185 ;
186 [label=<metric_change &le; 0.653<br/>mse = 0.018<br/>samples = 59<br/>value = -0.021>, fillcolor="#f9e4d5"] ;
185 -> 186 ;
187 [label=<FD_totalFireDepartments &le; 0.23<br/>mse = 0.023<br/>samples = 25<br/>value = 0.03>, fillcolor="#f9e4d4"] ;
186 -> 187 ;
188 [label=<FD_lessThan10kCitizens &le; -1.249<br/>mse = 0.013<br/>samples = 21<br/>value = -0.005>, fillcolor="#f9e4d5"] ;
187 -> 188 ;
189 [label=<mse = 0.0<br/>samples = 1<br/>value = 0.379>, fillcolor="#f9e0ce"] ;
188 -> 189 ;
190 [label=<S2_people_fully_vaccinated_per_hundred &le; -1.122<br/>mse = 0.006<br/>samples = 20<br/>value = -0.024>, fillcolor="#fae4d5"] ;
188 -> 190 ;
191 [label=<mse = 0.0<br/>samples = 1<br/>value = 0.244>, fillcolor="#f9e1d0"] ;
190 -> 191 ;
192 [label=<CEN_Hispanic or Latino (of any race) &le; -0.092<br/>mse = 0.003<br/>samples = 19<br/>value = -0.038>, fillcolor="#fae5d5"] ;
190 -> 192 ;
193 [label=<FD_adminAndFireResponse &le; -0.105<br/>mse = 0.001<br/>samples = 16<br/>value = -0.056>, fillcolor="#fae5d6"] ;
192 -> 193 ;
194 [label=<CEN_Employment Rate &le; -0.28<br/>mse = 0.0<br/>samples = 13<br/>value = -0.047>, fillcolor="#fae5d6"] ;
193 -> 194 ;
195 [label=<S3_people_fully_vaccinated &le; -0.761<br/>mse = 0.0<br/>samples = 4<br/>value = -0.027>, fillcolor="#fae4d5"] ;
194 -> 195 ;
196 [label=<mse = 0.0<br/>samples = 1<br/>value = -0.062>, fillcolor="#fae5d6"] ;
195 -> 196 ;
197 [label=<FD_totalFireDepartments &le; -0.495<br/>mse = 0.0<br/>samples = 3<br/>value = -0.016>, fillcolor="#f9e4d5"] ;
195 -> 197 ;
198 [label=<S3_people_fully_vaccinated &le; -0.469<br/>mse = 0.0<br/>samples = 2<br/>value = -0.011>, fillcolor="#f9e4d5"] ;
197 -> 198 ;
199 [label=<mse = 0.0<br/>samples = 1<br/>value = -0.012>, fillcolor="#f9e4d5"] ;
198 -> 199 ;
200 [label=<mse = -0.0<br/>samples = 1<br/>value = -0.011>, fillcolor="#f9e4d5"] ;
198 -> 200 ;
201 [label=<mse = 0.0<br/>samples = 1<br/>value = -0.025>, fillcolor="#fae4d5"] ;
197 -> 201 ;
202 [label=<S1_people_vaccinated_per_hundred &le; 0.745<br/>mse = 0.0<br/>samples = 9<br/>value = -0.056>, fillcolor="#fae5d6"] ;
194 -> 202 ;
203 [label=<HB_bed_For-Profit &le; 0.053<br/>mse = 0.0<br/>samples = 7<br/>value = -0.059>, fillcolor="#fae5d6"] ;
202 -> 203 ;
204 [label=<CP_1_diff &le; 1.784<br/>mse = 0.0<br/>samples = 6<br/>value = -0.057>, fillcolor="#fae5d6"] ;
203 -> 204 ;
205 [label=<OB_Prevalence &le; -0.699<br/>mse = 0.0<br/>samples = 5<br/>value = -0.056>, fillcolor="#fae5d6"] ;
204 -> 205 ;
206 [label=<HB_bed_Non-Profit &le; 1.018<br/>mse = 0.0<br/>samples = 2<br/>value = -0.057>, fillcolor="#fae5d6"] ;
205 -> 206 ;
207 [label=<mse = 0.0<br/>samples = 1<br/>value = -0.057>, fillcolor="#fae5d6"] ;
206 -> 207 ;
208 [label=<mse = 0.0<br/>samples = 1<br/>value = -0.058>, fillcolor="#fae5d6"] ;
206 -> 208 ;
209 [label=<FD_lessThan10kCitizens &le; -1.071<br/>mse = 0.0<br/>samples = 3<br/>value = -0.055>, fillcolor="#fae5d6"] ;
205 -> 209 ;
210 [label=<mse = 0.0<br/>samples = 1<br/>value = -0.054>, fillcolor="#fae5d6"] ;
209 -> 210 ;
211 [label=<S1_people_fully_vaccinated &le; -0.188<br/>mse = 0.0<br/>samples = 2<br/>value = -0.055>, fillcolor="#fae5d6"] ;
209 -> 211 ;
212 [label=<mse = 0.0<br/>samples = 1<br/>value = -0.055>, fillcolor="#fae5d6"] ;
211 -> 212 ;
213 [label=<mse = -0.0<br/>samples = 1<br/>value = -0.056>, fillcolor="#fae5d6"] ;
211 -> 213 ;
214 [label=<mse = 0.0<br/>samples = 1<br/>value = -0.064>, fillcolor="#fae5d6"] ;
204 -> 214 ;
215 [label=<mse = -0.0<br/>samples = 1<br/>value = -0.073>, fillcolor="#fae5d6"] ;
203 -> 215 ;
216 [label=<S3_people_fully_vaccinated &le; -0.137<br/>mse = 0.0<br/>samples = 2<br/>value = -0.045>, fillcolor="#fae5d5"] ;
202 -> 216 ;
217 [label=<mse = 0.0<br/>samples = 1<br/>value = -0.049>, fillcolor="#fae5d6"] ;
216 -> 217 ;
218 [label=<mse = -0.0<br/>samples = 1<br/>value = -0.04>, fillcolor="#fae5d5"] ;
216 -> 218 ;
219 [label=<S2_people_fully_vaccinated_per_hundred &le; -0.681<br/>mse = 0.001<br/>samples = 3<br/>value = -0.092>, fillcolor="#fae5d6"] ;
193 -> 219 ;
220 [label=<mse = 0.0<br/>samples = 1<br/>value = -0.087>, fillcolor="#fae5d6"] ;
219 -> 220 ;
221 [label=<mse = 0.001<br/>samples = 2<br/>value = -0.095>, fillcolor="#fae5d6"] ;
219 -> 221 ;
222 [label=<S1_people_fully_vaccinated_per_hundred &le; -0.218<br/>mse = 0.003<br/>samples = 3<br/>value = 0.055>, fillcolor="#f9e3d4"] ;
192 -> 222 ;
223 [label=<mse = 0.0<br/>samples = 1<br/>value = 0.052>, fillcolor="#f9e3d4"] ;
222 -> 223 ;
224 [label=<mse = 0.004<br/>samples = 2<br/>value = 0.056>, fillcolor="#f9e3d4"] ;
222 -> 224 ;
225 [label=<S3_people_fully_vaccinated &le; -0.223<br/>mse = 0.031<br/>samples = 4<br/>value = 0.214>, fillcolor="#f9e2d1"] ;
187 -> 225 ;
226 [label=<mse = 0.0<br/>samples = 1<br/>value = 0.34>, fillcolor="#f9e0cf"] ;
225 -> 226 ;
227 [label=<S2_people_vaccinated &le; 0.258<br/>mse = 0.034<br/>samples = 3<br/>value = 0.172>, fillcolor="#f9e2d2"] ;
225 -> 227 ;
228 [label=<mse = 0.05<br/>samples = 2<br/>value = 0.166>, fillcolor="#f9e2d2"] ;
227 -> 228 ;
229 [label=<mse = 0.0<br/>samples = 1<br/>value = 0.184>, fillcolor="#f9e2d1"] ;
227 -> 229 ;
230 [label=<HB_bed_State/Local Government &le; 0.564<br/>mse = 0.011<br/>samples = 34<br/>value = -0.059>, fillcolor="#fae5d6"] ;
186 -> 230 ;
231 [label=<FD_lessThan10kCitizens &le; -0.859<br/>mse = 0.005<br/>samples = 30<br/>value = -0.043>, fillcolor="#fae5d5"] ;
230 -> 231 ;
232 [label=<metric_change &le; 1.085<br/>mse = 0.01<br/>samples = 6<br/>value = 0.013>, fillcolor="#f9e4d4"] ;
231 -> 232 ;
233 [label=<mse = 0.0<br/>samples = 1<br/>value = 0.214>, fillcolor="#f9e2d1"] ;
232 -> 233 ;
234 [label=<CEN_Without Health Care Coverage &le; 0.023<br/>mse = 0.003<br/>samples = 5<br/>value = -0.027>, fillcolor="#fae4d5"] ;
232 -> 234 ;
235 [label=<FD_totalFireDepartments &le; -1.266<br/>mse = 0.0<br/>samples = 3<br/>value = -0.057>, fillcolor="#fae5d6"] ;
234 -> 235 ;
236 [label=<mse = 0.0<br/>samples = 1<br/>value = -0.046>, fillcolor="#fae5d6"] ;
235 -> 236 ;
237 [label=<FD_moreThan10kCitizens &le; -0.861<br/>mse = 0.0<br/>samples = 2<br/>value = -0.062>, fillcolor="#fae5d6"] ;
235 -> 237 ;
238 [label=<mse = 0.0<br/>samples = 1<br/>value = -0.063>, fillcolor="#fae5d6"] ;
237 -> 238 ;
239 [label=<mse = 0.0<br/>samples = 1<br/>value = -0.062>, fillcolor="#fae5d6"] ;
237 -> 239 ;
240 [label=<metric_change &le; 1.517<br/>mse = 0.004<br/>samples = 2<br/>value = 0.019>, fillcolor="#f9e4d4"] ;
234 -> 240 ;
241 [label=<mse = 0.0<br/>samples = 1<br/>value = 0.08>, fillcolor="#f9e3d3"] ;
240 -> 241 ;
242 [label=<mse = 0.0<br/>samples = 1<br/>value = -0.043>, fillcolor="#fae5d5"] ;
240 -> 242 ;
243 [label=<S1_people_vaccinated_per_hundred &le; -1.065<br/>mse = 0.002<br/>samples = 24<br/>value = -0.057>, fillcolor="#fae5d6"] ;
231 -> 243 ;
244 [label=<metric_change &le; 1.085<br/>mse = 0.003<br/>samples = 2<br/>value = -0.113>, fillcolor="#fae5d7"] ;
243 -> 244 ;
245 [label=<mse = 0.0<br/>samples = 1<br/>value = -0.059>, fillcolor="#fae5d6"] ;
244 -> 245 ;
246 [label=<mse = -0.0<br/>samples = 1<br/>value = -0.167>, fillcolor="#fae6d8"] ;
244 -> 246 ;
247 [label=<S3_people_vaccinated &le; -0.765<br/>mse = 0.002<br/>samples = 22<br/>value = -0.052>, fillcolor="#fae5d6"] ;
243 -> 247 ;
248 [label=<mse = 0.012<br/>samples = 2<br/>value = -0.004>, fillcolor="#f9e4d5"] ;
247 -> 248 ;
249 [label=<CEN_Total Population &le; 0.226<br/>mse = 0.001<br/>samples = 20<br/>value = -0.057>, fillcolor="#fae5d6"] ;
247 -> 249 ;
250 [label=<S2_people_fully_vaccinated_per_hundred &le; -0.694<br/>mse = 0.0<br/>samples = 18<br/>value = -0.062>, fillcolor="#fae5d6"] ;
249 -> 250 ;
251 [label=<mse = 0.0<br/>samples = 1<br/>value = -0.015>, fillcolor="#f9e4d5"] ;
250 -> 251 ;
252 [label=<HB_bed_State/Local Government &le; 0.045<br/>mse = 0.0<br/>samples = 17<br/>value = -0.064>, fillcolor="#fae5d6"] ;
250 -> 252 ;
253 [label=<CEN_Total Employer Establishments &le; 0.171<br/>mse = 0.0<br/>samples = 15<br/>value = -0.061>, fillcolor="#fae5d6"] ;
252 -> 253 ;
254 [label=<HB_bed_State/Local Government &le; -0.042<br/>mse = 0.0<br/>samples = 14<br/>value = -0.062>, fillcolor="#fae5d6"] ;
253 -> 254 ;
255 [label=<S2_people_fully_vaccinated_per_hundred &le; -0.094<br/>mse = 0.0<br/>samples = 11<br/>value = -0.063>, fillcolor="#fae5d6"] ;
254 -> 255 ;
256 [label=<OB_Prevalence &le; -0.869<br/>mse = 0.0<br/>samples = 3<br/>value = -0.06>, fillcolor="#fae5d6"] ;
255 -> 256 ;
257 [label=<mse = 0.0<br/>samples = 1<br/>value = -0.059>, fillcolor="#fae5d6"] ;
256 -> 257 ;
258 [label=<S1_people_vaccinated_per_hundred &le; 0.532<br/>mse = 0.0<br/>samples = 2<br/>value = -0.061>, fillcolor="#fae5d6"] ;
256 -> 258 ;
259 [label=<mse = 0.0<br/>samples = 1<br/>value = -0.061>, fillcolor="#fae5d6"] ;
258 -> 259 ;
260 [label=<mse = -0.0<br/>samples = 1<br/>value = -0.061>, fillcolor="#fae5d6"] ;
258 -> 260 ;
261 [label=<metric_change &le; 1.517<br/>mse = 0.0<br/>samples = 8<br/>value = -0.063>, fillcolor="#fae5d6"] ;
255 -> 261 ;
262 [label=<S2_people_fully_vaccinated &le; -0.753<br/>mse = 0.0<br/>samples = 6<br/>value = -0.064>, fillcolor="#fae5d6"] ;
261 -> 262 ;
263 [label=<CEN_Total Population &le; -0.816<br/>mse = 0.0<br/>samples = 2<br/>value = -0.065>, fillcolor="#fae5d6"] ;
262 -> 263 ;
264 [label=<mse = 0.0<br/>samples = 1<br/>value = -0.065>, fillcolor="#fae5d6"] ;
263 -> 264 ;
265 [label=<mse = 0.0<br/>samples = 1<br/>value = -0.065>, fillcolor="#fae5d6"] ;
263 -> 265 ;
266 [label=<FD_totalFireDepartments &le; -0.636<br/>mse = 0.0<br/>samples = 4<br/>value = -0.064>, fillcolor="#fae5d6"] ;
262 -> 266 ;
267 [label=<mse = 0.0<br/>samples = 1<br/>value = -0.064>, fillcolor="#fae5d6"] ;
266 -> 267 ;
268 [label=<CEN_Total Employer Establishments &le; -0.222<br/>mse = 0.0<br/>samples = 3<br/>value = -0.063>, fillcolor="#fae5d6"] ;
266 -> 268 ;
269 [label=<mse = 0.0<br/>samples = 2<br/>value = -0.064>, fillcolor="#fae5d6"] ;
268 -> 269 ;
270 [label=<mse = 0.0<br/>samples = 1<br/>value = -0.063>, fillcolor="#fae5d6"] ;
268 -> 270 ;
271 [label=<S1_people_vaccinated &le; -0.838<br/>mse = 0.0<br/>samples = 2<br/>value = -0.062>, fillcolor="#fae5d6"] ;
261 -> 271 ;
272 [label=<mse = 0.0<br/>samples = 1<br/>value = -0.062>, fillcolor="#fae5d6"] ;
271 -> 272 ;
273 [label=<mse = -0.0<br/>samples = 1<br/>value = -0.061>, fillcolor="#fae5d6"] ;
271 -> 273 ;
274 [label=<metric_change &le; 1.517<br/>mse = 0.0<br/>samples = 3<br/>value = -0.058>, fillcolor="#fae5d6"] ;
254 -> 274 ;
275 [label=<CP_2_diff &le; 0.706<br/>mse = 0.0<br/>samples = 2<br/>value = -0.061>, fillcolor="#fae5d6"] ;
274 -> 275 ;
276 [label=<mse = 0.0<br/>samples = 1<br/>value = -0.063>, fillcolor="#fae5d6"] ;
275 -> 276 ;
277 [label=<mse = -0.0<br/>samples = 1<br/>value = -0.059>, fillcolor="#fae5d6"] ;
275 -> 277 ;
278 [label=<mse = 0.0<br/>samples = 1<br/>value = -0.052>, fillcolor="#fae5d6"] ;
274 -> 278 ;
279 [label=<mse = -0.0<br/>samples = 1<br/>value = -0.045>, fillcolor="#fae5d5"] ;
253 -> 279 ;
280 [label=<metric_change &le; 1.085<br/>mse = 0.001<br/>samples = 2<br/>value = -0.093>, fillcolor="#fae5d6"] ;
252 -> 280 ;
281 [label=<mse = 0.0<br/>samples = 1<br/>value = -0.062>, fillcolor="#fae5d6"] ;
280 -> 281 ;
282 [label=<mse = -0.0<br/>samples = 1<br/>value = -0.123>, fillcolor="#fae5d7"] ;
280 -> 282 ;
283 [label=<FD_totalFireDepartments &le; 0.349<br/>mse = 0.0<br/>samples = 2<br/>value = -0.018>, fillcolor="#f9e4d5"] ;
249 -> 283 ;
284 [label=<mse = 0.0<br/>samples = 1<br/>value = -0.003>, fillcolor="#f9e4d5"] ;
283 -> 284 ;
285 [label=<mse = 0.0<br/>samples = 1<br/>value = -0.032>, fillcolor="#fae4d5"] ;
283 -> 285 ;
286 [label=<metric_change &le; 1.517<br/>mse = 0.042<br/>samples = 4<br/>value = -0.181>, fillcolor="#fae6d8"] ;
230 -> 286 ;
287 [label=<CEN_Median Household Income &le; -0.552<br/>mse = 0.0<br/>samples = 3<br/>value = -0.062>, fillcolor="#fae5d6"] ;
286 -> 287 ;
288 [label=<mse = 0.0<br/>samples = 1<br/>value = -0.062>, fillcolor="#fae5d6"] ;
287 -> 288 ;
289 [label=<S3_people_fully_vaccinated_per_hundred &le; -0.911<br/>mse = 0.0<br/>samples = 2<br/>value = -0.063>, fillcolor="#fae5d6"] ;
287 -> 289 ;
290 [label=<mse = 0.0<br/>samples = 1<br/>value = -0.063>, fillcolor="#fae5d6"] ;
289 -> 290 ;
291 [label=<mse = -0.0<br/>samples = 1<br/>value = -0.063>, fillcolor="#fae5d6"] ;
289 -> 291 ;
292 [label=<mse = 0.0<br/>samples = 1<br/>value = -0.535>, fillcolor="#fbeade"] ;
286 -> 292 ;
293 [label=<metric_change &le; 1.085<br/>mse = 0.112<br/>samples = 5<br/>value = -0.256>, fillcolor="#fae7d9"] ;
185 -> 293 ;
294 [label=<metric_change &le; 0.653<br/>mse = 0.103<br/>samples = 4<br/>value = -0.17>, fillcolor="#fae6d8"] ;
293 -> 294 ;
295 [label=<mse = 0.153<br/>samples = 2<br/>value = -0.331>, fillcolor="#fae8db"] ;
294 -> 295 ;
296 [label=<mse = 0.0<br/>samples = 2<br/>value = -0.009>, fillcolor="#f9e4d5"] ;
294 -> 296 ;
297 [label=<mse = 0.0<br/>samples = 1<br/>value = -0.6>, fillcolor="#fbebdf"] ;
293 -> 297 ;
298 [label=<mse = 0.0<br/>samples = 1<br/>value = 0.558>, fillcolor="#f8decb"] ;
184 -> 298 ;
299 [label=<metric_change &le; 0.653<br/>mse = 0.31<br/>samples = 3<br/>value = 0.322>, fillcolor="#f9e0cf"] ;
183 -> 299 ;
300 [label=<mse = 0.0<br/>samples = 1<br/>value = -0.119>, fillcolor="#fae5d7"] ;
299 -> 300 ;
301 [label=<metric_change &le; 1.301<br/>mse = 0.319<br/>samples = 2<br/>value = 0.542>, fillcolor="#f8decb"] ;
299 -> 301 ;
302 [label=<mse = 0.0<br/>samples = 1<br/>value = 1.107>, fillcolor="#f7d8c1"] ;
301 -> 302 ;
303 [label=<mse = -0.0<br/>samples = 1<br/>value = -0.022>, fillcolor="#f9e4d5"] ;
301 -> 303 ;
304 [label=<metric_change &le; 1.517<br/>mse = 0.512<br/>samples = 2<br/>value = 0.656>, fillcolor="#f8ddc9"] ;
182 -> 304 ;
305 [label=<mse = 0.0<br/>samples = 1<br/>value = 1.371>, fillcolor="#f6d5bc"] ;
304 -> 305 ;
306 [label=<mse = 0.0<br/>samples = 1<br/>value = -0.06>, fillcolor="#fae5d6"] ;
304 -> 306 ;
307 [label=<mse = -0.0<br/>samples = 1<br/>value = -1.175>, fillcolor="#fcf1ea"] ;
181 -> 307 ;
308 [label=<CP_0_diff &le; 0.046<br/>mse = 2.651<br/>samples = 18<br/>value = 0.824>, fillcolor="#f8dbc6"] ;
168 -> 308 ;
309 [label=<metric_change &le; 1.085<br/>mse = 4.617<br/>samples = 7<br/>value = 1.788>, fillcolor="#f5d0b5"] ;
308 -> 309 ;
310 [label=<metric_change &le; 0.653<br/>mse = 4.285<br/>samples = 4<br/>value = 1.133>, fillcolor="#f7d7c1"] ;
309 -> 310 ;
311 [label=<HB_bed_For-Profit &le; -0.597<br/>mse = 5.711<br/>samples = 2<br/>value = 2.329>, fillcolor="#f4caab"] ;
310 -> 311 ;
312 [label=<mse = 0.0<br/>samples = 1<br/>value = 4.719>, fillcolor="#eeaf81"] ;
311 -> 312 ;
313 [label=<mse = -0.0<br/>samples = 1<br/>value = -0.061>, fillcolor="#fae5d6"] ;
311 -> 313 ;
314 [label=<S3_people_fully_vaccinated_per_hundred &le; 0.108<br/>mse = 0.0<br/>samples = 2<br/>value = -0.063>, fillcolor="#fae5d6"] ;
310 -> 314 ;
315 [label=<mse = 0.0<br/>samples = 1<br/>value = -0.063>, fillcolor="#fae5d6"] ;
314 -> 315 ;
316 [label=<mse = -0.0<br/>samples = 1<br/>value = -0.062>, fillcolor="#fae5d6"] ;
314 -> 316 ;
317 [label=<metric_change &le; 1.517<br/>mse = 3.724<br/>samples = 3<br/>value = 2.662>, fillcolor="#f3c6a5"] ;
309 -> 317 ;
318 [label=<FD_moreThan10kCitizens &le; 0.186<br/>mse = 0.022<br/>samples = 2<br/>value = 4.023>, fillcolor="#f0b78d"] ;
317 -> 318 ;
319 [label=<mse = 0.0<br/>samples = 1<br/>value = 3.874>, fillcolor="#f0b890"] ;
318 -> 319 ;
320 [label=<mse = -0.0<br/>samples = 1<br/>value = 4.173>, fillcolor="#f0b58a"] ;
318 -> 320 ;
321 [label=<mse = 0.0<br/>samples = 1<br/>value = -0.062>, fillcolor="#fae5d6"] ;
317 -> 321 ;
322 [label=<CEN_Bachelor's Degree or Higher &le; -0.061<br/>mse = 0.431<br/>samples = 11<br/>value = 0.21>, fillcolor="#f9e2d1"] ;
308 -> 322 ;
323 [label=<S1_people_vaccinated &le; -0.346<br/>mse = 0.009<br/>samples = 8<br/>value = 0.009>, fillcolor="#f9e4d5"] ;
322 -> 323 ;
324 [label=<metric_change &le; 1.517<br/>mse = 0.017<br/>samples = 2<br/>value = 0.119>, fillcolor="#f9e3d3"] ;
323 -> 324 ;
325 [label=<mse = 0.0<br/>samples = 1<br/>value = 0.249>, fillcolor="#f9e1d0"] ;
324 -> 325 ;
326 [label=<mse = -0.0<br/>samples = 1<br/>value = -0.011>, fillcolor="#f9e4d5"] ;
324 -> 326 ;
327 [label=<metric_change &le; 1.085<br/>mse = 0.001<br/>samples = 6<br/>value = -0.028>, fillcolor="#fae4d5"] ;
323 -> 327 ;
328 [label=<FD_fireResponseOnly &le; -0.435<br/>mse = 0.001<br/>samples = 3<br/>value = 0.0>, fillcolor="#f9e4d5"] ;
327 -> 328 ;
329 [label=<S1_people_fully_vaccinated &le; 0.084<br/>mse = 0.0<br/>samples = 2<br/>value = 0.025>, fillcolor="#f9e4d4"] ;
328 -> 329 ;
330 [label=<mse = 0.0<br/>samples = 1<br/>value = 0.038>, fillcolor="#f9e4d4"] ;
329 -> 330 ;
331 [label=<mse = 0.0<br/>samples = 1<br/>value = 0.012>, fillcolor="#f9e4d4"] ;
329 -> 331 ;
332 [label=<mse = 0.0<br/>samples = 1<br/>value = -0.049>, fillcolor="#fae5d6"] ;
328 -> 332 ;
333 [label=<S4_people_fully_vaccinated &le; 0.289<br/>mse = 0.0<br/>samples = 3<br/>value = -0.056>, fillcolor="#fae5d6"] ;
327 -> 333 ;
334 [label=<CEN_Without Health Care Coverage &le; -0.314<br/>mse = 0.0<br/>samples = 2<br/>value = -0.052>, fillcolor="#fae5d6"] ;
333 -> 334 ;
335 [label=<mse = 0.0<br/>samples = 1<br/>value = -0.049>, fillcolor="#fae5d6"] ;
334 -> 335 ;
336 [label=<mse = 0.0<br/>samples = 1<br/>value = -0.055>, fillcolor="#fae5d6"] ;
334 -> 336 ;
337 [label=<mse = 0.0<br/>samples = 1<br/>value = -0.064>, fillcolor="#fae5d6"] ;
333 -> 337 ;
338 [label=<metric_change &le; 0.653<br/>mse = 1.16<br/>samples = 3<br/>value = 0.746>, fillcolor="#f8dcc7"] ;
322 -> 338 ;
339 [label=<mse = 1.255<br/>samples = 2<br/>value = 1.148>, fillcolor="#f7d7c0"] ;
338 -> 339 ;
340 [label=<mse = 0.0<br/>samples = 1<br/>value = -0.059>, fillcolor="#fae5d6"] ;
338 -> 340 ;
341 [label=<metric_change &le; -0.642<br/>mse = 0.869<br/>samples = 15<br/>value = -0.858>, fillcolor="#fbeee4"] ;
1 -> 341 ;
342 [label=<metric_change &le; -1.506<br/>mse = 0.41<br/>samples = 5<br/>value = -1.521>, fillcolor="#fdf5f0"] ;
341 -> 342 ;
343 [label=<mse = 0.0<br/>samples = 1<br/>value = -2.132>, fillcolor="#fefcfb"] ;
342 -> 343 ;
344 [label=<FD_moreThan10kCitizens &le; 2.266<br/>mse = 0.396<br/>samples = 4<br/>value = -1.369>, fillcolor="#fdf4ed"] ;
342 -> 344 ;
345 [label=<metric_change &le; -1.074<br/>mse = 0.082<br/>samples = 2<br/>value = -0.934>, fillcolor="#fcefe5"] ;
344 -> 345 ;
346 [label=<mse = 0.0<br/>samples = 1<br/>value = -0.647>, fillcolor="#fbebe0"] ;
345 -> 346 ;
347 [label=<mse = -0.0<br/>samples = 1<br/>value = -1.221>, fillcolor="#fcf2ea"] ;
345 -> 347 ;
348 [label=<metric_change &le; -1.074<br/>mse = 0.331<br/>samples = 2<br/>value = -1.803>, fillcolor="#fef8f5"] ;
344 -> 348 ;
349 [label=<mse = 0.0<br/>samples = 1<br/>value = -1.228>, fillcolor="#fcf2eb"] ;
348 -> 349 ;
350 [label=<mse = 0.0<br/>samples = 1<br/>value = -2.379>, fillcolor="#ffffff"] ;
348 -> 350 ;
351 [label=<metric_change &le; 1.517<br/>mse = 0.768<br/>samples = 10<br/>value = -0.526>, fillcolor="#fbeade"] ;
341 -> 351 ;
352 [label=<metric_change &le; 1.085<br/>mse = 0.869<br/>samples = 8<br/>value = -0.661>, fillcolor="#fbece0"] ;
351 -> 352 ;
353 [label=<metric_change &le; 0.006<br/>mse = 0.716<br/>samples = 7<br/>value = -0.475>, fillcolor="#fbe9dd"] ;
352 -> 353 ;
354 [label=<CEN_Median Household Income &le; 0.13<br/>mse = 0.907<br/>samples = 4<br/>value = -0.856>, fillcolor="#fbeee4"] ;
353 -> 354 ;
355 [label=<HB_bed_Total &le; 0.252<br/>mse = 0.021<br/>samples = 2<br/>value = -0.308>, fillcolor="#fae8da"] ;
354 -> 355 ;
356 [label=<mse = 0.0<br/>samples = 1<br/>value = -0.163>, fillcolor="#fae6d8"] ;
355 -> 356 ;
357 [label=<mse = 0.0<br/>samples = 1<br/>value = -0.453>, fillcolor="#fbe9dd"] ;
355 -> 357 ;
358 [label=<mse = 1.192<br/>samples = 2<br/>value = -1.405>, fillcolor="#fdf4ee"] ;
354 -> 358 ;
359 [label=<CEN_Hispanic or Latino (of any race) &le; 0.212<br/>mse = 0.01<br/>samples = 3<br/>value = 0.033>, fillcolor="#f9e4d4"] ;
353 -> 359 ;
360 [label=<mse = 0.0<br/>samples = 1<br/>value = 0.173>, fillcolor="#f9e2d2"] ;
359 -> 360 ;
361 [label=<metric_change &le; 0.653<br/>mse = 0.001<br/>samples = 2<br/>value = -0.037>, fillcolor="#fae5d5"] ;
359 -> 361 ;
362 [label=<mse = 0.0<br/>samples = 1<br/>value = -0.06>, fillcolor="#fae5d6"] ;
361 -> 362 ;
363 [label=<mse = -0.0<br/>samples = 1<br/>value = -0.014>, fillcolor="#f9e4d5"] ;
361 -> 363 ;
364 [label=<mse = 0.0<br/>samples = 1<br/>value = -1.964>, fillcolor="#fefaf8"] ;
352 -> 364 ;
365 [label=<CP_1_diff &le; 0.144<br/>mse = 0.002<br/>samples = 2<br/>value = 0.013>, fillcolor="#f9e4d4"] ;
351 -> 365 ;
366 [label=<mse = 0.0<br/>samples = 1<br/>value = 0.054>, fillcolor="#f9e3d4"] ;
365 -> 366 ;
367 [label=<mse = 0.0<br/>samples = 1<br/>value = -0.028>, fillcolor="#fae4d5"] ;
365 -> 367 ;
368 [label=<metric_change &le; 0.006<br/>mse = 10.367<br/>samples = 9<br/>value = 1.52>, fillcolor="#f6d3ba"] ;
0 -> 368 [labeldistance=2.5, labelangle=-45, headlabel="False"] ;
369 [label=<metric_change &le; -0.858<br/>mse = 0.109<br/>samples = 4<br/>value = -0.773>, fillcolor="#fbede2"] ;
368 -> 369 ;
370 [label=<S3_people_vaccinated_per_hundred &le; 0.414<br/>mse = 0.135<br/>samples = 3<br/>value = -0.821>, fillcolor="#fbede3"] ;
369 -> 370 ;
371 [label=<mse = 0.191<br/>samples = 2<br/>value = -0.758>, fillcolor="#fbede2"] ;
370 -> 371 ;
372 [label=<mse = 0.0<br/>samples = 1<br/>value = -0.948>, fillcolor="#fcefe6"] ;
370 -> 372 ;
373 [label=<mse = 0.0<br/>samples = 1<br/>value = -0.627>, fillcolor="#fbebe0"] ;
369 -> 373 ;
374 [label=<metric_change &le; 0.653<br/>mse = 11.007<br/>samples = 5<br/>value = 3.353>, fillcolor="#f2be99"] ;
368 -> 374 ;
375 [label=<OB_Prevalence &le; 0.19<br/>mse = 3.589<br/>samples = 2<br/>value = 6.861>, fillcolor="#e9965b"] ;
374 -> 375 ;
376 [label=<mse = 0.0<br/>samples = 1<br/>value = 8.756>, fillcolor="#e58139"] ;
375 -> 376 ;
377 [label=<mse = -0.0<br/>samples = 1<br/>value = 4.967>, fillcolor="#eeac7c"] ;
375 -> 377 ;
378 [label=<metric_change &le; 1.085<br/>mse = 2.28<br/>samples = 3<br/>value = 1.015>, fillcolor="#f7d9c3"] ;
374 -> 378 ;
379 [label=<S1_people_vaccinated_per_hundred &le; -1.232<br/>mse = 0.0<br/>samples = 2<br/>value = -0.053>, fillcolor="#fae5d6"] ;
378 -> 379 ;
380 [label=<mse = 0.0<br/>samples = 1<br/>value = -0.044>, fillcolor="#fae5d5"] ;
379 -> 380 ;
381 [label=<mse = 0.0<br/>samples = 1<br/>value = -0.062>, fillcolor="#fae5d6"] ;
379 -> 381 ;
382 [label=<mse = 0.0<br/>samples = 1<br/>value = 3.15>, fillcolor="#f2c09d"] ;
378 -> 382 ;
}
