digraph Tree {
node [shape=box, style="filled, rounded", color="black", fontname=helvetica] ;
edge [fontname=helvetica] ;
0 [label=<CEN_Without Health Care Coverage &le; -1.351<br/>mse = 1.0<br/>samples = 81<br/>value = -0.0>, fillcolor="#fae8db"] ;
1 [label=<metric_change &le; -0.091<br/>mse = 7.437<br/>samples = 5<br/>value = 1.174>, fillcolor="#f6d6be"] ;
0 -> 1 [labeldistance=2.5, labelangle=45, headlabel="True"] ;
2 [label=<S2_people_fully_vaccinated_per_hundred &le; 0.954<br/>mse = 0.307<br/>samples = 2<br/>value = -0.607>, fillcolor="#fcf2eb"] ;
1 -> 2 ;
3 [label=<mse = 0.0<br/>samples = 1<br/>value = -0.053>, fillcolor="#fbe9dd"] ;
2 -> 3 ;
4 [label=<mse = 0.0<br/>samples = 1<br/>value = -1.161>, fillcolor="#fefbf8"] ;
2 -> 4 ;
5 [label=<S1_people_fully_vaccinated_per_hundred &le; -1.21<br/>mse = 8.663<br/>samples = 3<br/>value = 2.362>, fillcolor="#f3c3a0"] ;
1 -> 5 ;
6 [label=<mse = 0.0<br/>samples = 1<br/>value = 6.504>, fillcolor="#e58139"] ;
5 -> 6 ;
7 [label=<S4_people_fully_vaccinated_per_hundred &le; 1.149<br/>mse = 0.131<br/>samples = 2<br/>value = 0.292>, fillcolor="#f9e4d4"] ;
5 -> 7 ;
8 [label=<mse = 0.0<br/>samples = 1<br/>value = -0.071>, fillcolor="#fbe9dd"] ;
7 -> 8 ;
9 [label=<mse = 0.0<br/>samples = 1<br/>value = 0.654>, fillcolor="#f8decb"] ;
7 -> 9 ;
10 [label=<CEN_Total Population &le; 2.956<br/>mse = 0.48<br/>samples = 76<br/>value = -0.077>, fillcolor="#fbeadd"] ;
0 -> 10 [labeldistance=2.5, labelangle=-45, headlabel="False"] ;
11 [label=<OB_Prevalence &le; 1.185<br/>mse = 0.362<br/>samples = 74<br/>value = -0.121>, fillcolor="#fbeade"] ;
10 -> 11 ;
12 [label=<CEN_Hispanic or Latino (of any race) &le; 0.986<br/>mse = 0.205<br/>samples = 65<br/>value = -0.057>, fillcolor="#fbe9dd"] ;
11 -> 12 ;
13 [label=<CEN_Without Health Care Coverage &le; 1.546<br/>mse = 0.108<br/>samples = 59<br/>value = -0.1>, fillcolor="#fbeade"] ;
12 -> 13 ;
14 [label=<FD_fireResponseOnly &le; 0.61<br/>mse = 0.074<br/>samples = 53<br/>value = -0.062>, fillcolor="#fbe9dd"] ;
13 -> 14 ;
15 [label=<CEN_Bachelor's Degree or Higher &le; -1.446<br/>mse = 0.047<br/>samples = 44<br/>value = -0.018>, fillcolor="#fae9dc"] ;
14 -> 15 ;
16 [label=<metric_change &le; -0.091<br/>mse = 0.383<br/>samples = 2<br/>value = 0.403>, fillcolor="#f9e2d1"] ;
15 -> 16 ;
17 [label=<mse = 0.0<br/>samples = 1<br/>value = 1.022>, fillcolor="#f7d8c2"] ;
16 -> 17 ;
18 [label=<mse = -0.0<br/>samples = 1<br/>value = -0.216>, fillcolor="#fbece1"] ;
16 -> 18 ;
19 [label=<CP_2_diff &le; 0.572<br/>mse = 0.022<br/>samples = 42<br/>value = -0.038>, fillcolor="#fae9dc"] ;
15 -> 19 ;
20 [label=<S3_people_fully_vaccinated &le; -0.523<br/>mse = 0.029<br/>samples = 26<br/>value = -0.001>, fillcolor="#fae8db"] ;
19 -> 20 ;
21 [label=<metric_change &le; -0.091<br/>mse = 0.026<br/>samples = 10<br/>value = -0.057>, fillcolor="#fbe9dd"] ;
20 -> 21 ;
22 [label=<CP_1_diff &le; -1.076<br/>mse = 0.018<br/>samples = 4<br/>value = -0.151>, fillcolor="#fbebdf"] ;
21 -> 22 ;
23 [label=<mse = 0.0<br/>samples = 1<br/>value = -0.369>, fillcolor="#fceee5"] ;
22 -> 23 ;
24 [label=<S3_people_vaccinated &le; -0.892<br/>mse = 0.002<br/>samples = 3<br/>value = -0.078>, fillcolor="#fbeadd"] ;
22 -> 24 ;
25 [label=<mse = 0.0<br/>samples = 1<br/>value = -0.01>, fillcolor="#fae9dc"] ;
24 -> 25 ;
26 [label=<S4_people_fully_vaccinated &le; -0.711<br/>mse = 0.0<br/>samples = 2<br/>value = -0.112>, fillcolor="#fbeade"] ;
24 -> 26 ;
27 [label=<mse = 0.0<br/>samples = 1<br/>value = -0.118>, fillcolor="#fbeade"] ;
26 -> 27 ;
28 [label=<mse = -0.0<br/>samples = 1<br/>value = -0.107>, fillcolor="#fbeade"] ;
26 -> 28 ;
29 [label=<SP_State House Majority Political Affiliation &le; 2.271<br/>mse = 0.022<br/>samples = 6<br/>value = 0.006>, fillcolor="#fae8db"] ;
21 -> 29 ;
30 [label=<CEN_Median Household Income &le; 0.863<br/>mse = 0.001<br/>samples = 4<br/>value = -0.057>, fillcolor="#fbe9dd"] ;
29 -> 30 ;
31 [label=<CEN_Total Housing Units &le; -0.787<br/>mse = 0.0<br/>samples = 3<br/>value = -0.072>, fillcolor="#fbeadd"] ;
30 -> 31 ;
32 [label=<SP_State Attorney General Political Affiliation &le; 0.163<br/>mse = 0.0<br/>samples = 2<br/>value = -0.073>, fillcolor="#fbeadd"] ;
31 -> 32 ;
33 [label=<mse = 0.0<br/>samples = 1<br/>value = -0.074>, fillcolor="#fbeadd"] ;
32 -> 33 ;
34 [label=<mse = 0.0<br/>samples = 1<br/>value = -0.072>, fillcolor="#fbeadd"] ;
32 -> 34 ;
35 [label=<mse = -0.0<br/>samples = 1<br/>value = -0.069>, fillcolor="#fbe9dd"] ;
31 -> 35 ;
36 [label=<mse = 0.0<br/>samples = 1<br/>value = -0.012>, fillcolor="#fae9dc"] ;
30 -> 36 ;
37 [label=<mse = 0.041<br/>samples = 2<br/>value = 0.13>, fillcolor="#fae6d8"] ;
29 -> 37 ;
38 [label=<S1_people_fully_vaccinated_per_hundred &le; -0.616<br/>mse = 0.027<br/>samples = 16<br/>value = 0.034>, fillcolor="#fae8db"] ;
20 -> 38 ;
39 [label=<metric_change &le; -0.091<br/>mse = 0.003<br/>samples = 4<br/>value = -0.017>, fillcolor="#fae9dc"] ;
38 -> 39 ;
40 [label=<S4_people_vaccinated_per_hundred &le; -0.808<br/>mse = 0.0<br/>samples = 2<br/>value = 0.035>, fillcolor="#fae8db"] ;
39 -> 40 ;
41 [label=<mse = 0.0<br/>samples = 1<br/>value = 0.015>, fillcolor="#fae8db"] ;
40 -> 41 ;
42 [label=<mse = -0.0<br/>samples = 1<br/>value = 0.056>, fillcolor="#fae7da"] ;
40 -> 42 ;
43 [label=<S3_people_vaccinated &le; 0.515<br/>mse = 0.0<br/>samples = 2<br/>value = -0.069>, fillcolor="#fbe9dd"] ;
39 -> 43 ;
44 [label=<mse = 0.0<br/>samples = 1<br/>value = -0.061>, fillcolor="#fbe9dd"] ;
43 -> 44 ;
45 [label=<mse = -0.0<br/>samples = 1<br/>value = -0.078>, fillcolor="#fbeadd"] ;
43 -> 45 ;
46 [label=<HB_bed_State/Local Government &le; -0.579<br/>mse = 0.034<br/>samples = 12<br/>value = 0.051>, fillcolor="#fae8da"] ;
38 -> 46 ;
47 [label=<metric_change &le; -0.091<br/>mse = 0.014<br/>samples = 2<br/>value = 0.099>, fillcolor="#fae7d9"] ;
46 -> 47 ;
48 [label=<mse = 0.0<br/>samples = 1<br/>value = -0.018>, fillcolor="#fae9dc"] ;
47 -> 48 ;
49 [label=<mse = 0.0<br/>samples = 1<br/>value = 0.215>, fillcolor="#fae5d6"] ;
47 -> 49 ;
50 [label=<FD_fireResponseOnly &le; -0.475<br/>mse = 0.038<br/>samples = 10<br/>value = 0.042>, fillcolor="#fae8da"] ;
46 -> 50 ;
51 [label=<metric_change &le; -0.091<br/>mse = 0.041<br/>samples = 6<br/>value = 0.053>, fillcolor="#fae8da"] ;
50 -> 51 ;
52 [label=<S1_people_fully_vaccinated_per_hundred &le; 0.747<br/>mse = 0.037<br/>samples = 3<br/>value = 0.118>, fillcolor="#fae6d8"] ;
51 -> 52 ;
53 [label=<FD_adminAndFireResponse &le; 0.444<br/>mse = 0.006<br/>samples = 2<br/>value = -0.01>, fillcolor="#fae9dc"] ;
52 -> 53 ;
54 [label=<mse = 0.0<br/>samples = 1<br/>value = -0.088>, fillcolor="#fbeade"] ;
53 -> 54 ;
55 [label=<mse = 0.0<br/>samples = 1<br/>value = 0.069>, fillcolor="#fae7da"] ;
53 -> 55 ;
56 [label=<mse = 0.0<br/>samples = 1<br/>value = 0.373>, fillcolor="#f9e2d2"] ;
52 -> 56 ;
57 [label=<CEN_Bachelor's Degree or Higher &le; 0.028<br/>mse = 0.038<br/>samples = 3<br/>value = -0.011>, fillcolor="#fae9dc"] ;
51 -> 57 ;
58 [label=<S4_people_vaccinated_per_hundred &le; -0.768<br/>mse = 0.006<br/>samples = 2<br/>value = 0.119>, fillcolor="#fae6d8"] ;
57 -> 58 ;
59 [label=<mse = 0.0<br/>samples = 1<br/>value = 0.198>, fillcolor="#fae5d6"] ;
58 -> 59 ;
60 [label=<mse = -0.0<br/>samples = 1<br/>value = 0.041>, fillcolor="#fae8da"] ;
58 -> 60 ;
61 [label=<mse = 0.0<br/>samples = 1<br/>value = -0.272>, fillcolor="#fbede2"] ;
57 -> 61 ;
62 [label=<metric_change &le; -0.091<br/>mse = 0.032<br/>samples = 4<br/>value = 0.024>, fillcolor="#fae8db"] ;
50 -> 62 ;
63 [label=<CEN_Total Employer Establishments &le; -0.05<br/>mse = 0.024<br/>samples = 2<br/>value = -0.06>, fillcolor="#fbe9dd"] ;
62 -> 63 ;
64 [label=<mse = 0.0<br/>samples = 1<br/>value = 0.095>, fillcolor="#fae7d9"] ;
63 -> 64 ;
65 [label=<mse = 0.0<br/>samples = 1<br/>value = -0.215>, fillcolor="#fbece1"] ;
63 -> 65 ;
66 [label=<FD_totalFireDepartments &le; 0.592<br/>mse = 0.026<br/>samples = 2<br/>value = 0.109>, fillcolor="#fae7d9"] ;
62 -> 66 ;
67 [label=<mse = 0.0<br/>samples = 1<br/>value = -0.053>, fillcolor="#fbe9dd"] ;
66 -> 67 ;
68 [label=<mse = 0.0<br/>samples = 1<br/>value = 0.27>, fillcolor="#f9e4d5"] ;
66 -> 68 ;
69 [label=<metric_change &le; -0.091<br/>mse = 0.004<br/>samples = 16<br/>value = -0.098>, fillcolor="#fbeade"] ;
19 -> 69 ;
70 [label=<CEN_Total Housing Units &le; -0.796<br/>mse = 0.006<br/>samples = 8<br/>value = -0.135>, fillcolor="#fbebdf"] ;
69 -> 70 ;
71 [label=<S4_people_vaccinated &le; -0.849<br/>mse = 0.002<br/>samples = 6<br/>value = -0.1>, fillcolor="#fbeade"] ;
70 -> 71 ;
72 [label=<S4_people_fully_vaccinated_per_hundred &le; -0.865<br/>mse = 0.0<br/>samples = 4<br/>value = -0.079>, fillcolor="#fbeadd"] ;
71 -> 72 ;
73 [label=<CEN_Total Housing Units &le; -0.954<br/>mse = 0.0<br/>samples = 2<br/>value = -0.093>, fillcolor="#fbeade"] ;
72 -> 73 ;
74 [label=<mse = 0.0<br/>samples = 1<br/>value = -0.084>, fillcolor="#fbeade"] ;
73 -> 74 ;
75 [label=<mse = -0.0<br/>samples = 1<br/>value = -0.103>, fillcolor="#fbeade"] ;
73 -> 75 ;
76 [label=<S2_people_vaccinated_per_hundred &le; -0.295<br/>mse = 0.0<br/>samples = 2<br/>value = -0.064>, fillcolor="#fbe9dd"] ;
72 -> 76 ;
77 [label=<mse = 0.0<br/>samples = 1<br/>value = -0.067>, fillcolor="#fbe9dd"] ;
76 -> 77 ;
78 [label=<mse = -0.0<br/>samples = 1<br/>value = -0.062>, fillcolor="#fbe9dd"] ;
76 -> 78 ;
79 [label=<mse = 0.004<br/>samples = 2<br/>value = -0.142>, fillcolor="#fbebdf"] ;
71 -> 79 ;
80 [label=<CEN_Without Health Care Coverage &le; -0.288<br/>mse = 0.001<br/>samples = 2<br/>value = -0.241>, fillcolor="#fbece1"] ;
70 -> 80 ;
81 [label=<mse = 0.0<br/>samples = 1<br/>value = -0.266>, fillcolor="#fbede2"] ;
80 -> 81 ;
82 [label=<mse = 0.0<br/>samples = 1<br/>value = -0.217>, fillcolor="#fbece1"] ;
80 -> 82 ;
83 [label=<CEN_Employment Rate &le; 0.047<br/>mse = 0.0<br/>samples = 8<br/>value = -0.061>, fillcolor="#fbe9dd"] ;
69 -> 83 ;
84 [label=<SP_Governor Political Affiliation &le; 0.112<br/>mse = 0.0<br/>samples = 3<br/>value = -0.074>, fillcolor="#fbeadd"] ;
83 -> 84 ;
85 [label=<CEN_Total Population &le; -1.058<br/>mse = 0.0<br/>samples = 2<br/>value = -0.076>, fillcolor="#fbeadd"] ;
84 -> 85 ;
86 [label=<mse = 0.0<br/>samples = 1<br/>value = -0.075>, fillcolor="#fbeadd"] ;
85 -> 86 ;
87 [label=<mse = 0.0<br/>samples = 1<br/>value = -0.076>, fillcolor="#fbeadd"] ;
85 -> 87 ;
88 [label=<mse = -0.0<br/>samples = 1<br/>value = -0.071>, fillcolor="#fbeadd"] ;
84 -> 88 ;
89 [label=<S2_people_vaccinated &le; -0.987<br/>mse = 0.0<br/>samples = 5<br/>value = -0.053>, fillcolor="#fbe9dd"] ;
83 -> 89 ;
90 [label=<mse = 0.0<br/>samples = 1<br/>value = -0.071>, fillcolor="#fbe9dd"] ;
89 -> 90 ;
91 [label=<FD_lessThan10kCitizens &le; -0.494<br/>mse = 0.0<br/>samples = 4<br/>value = -0.048>, fillcolor="#fae9dd"] ;
89 -> 91 ;
92 [label=<CEN_Bachelor's Degree or Higher &le; 0.755<br/>mse = 0.0<br/>samples = 2<br/>value = -0.046>, fillcolor="#fae9dd"] ;
91 -> 92 ;
93 [label=<mse = 0.0<br/>samples = 1<br/>value = -0.047>, fillcolor="#fae9dd"] ;
92 -> 93 ;
94 [label=<mse = 0.0<br/>samples = 1<br/>value = -0.044>, fillcolor="#fae9dd"] ;
92 -> 94 ;
95 [label=<S2_people_vaccinated_per_hundred &le; 0.999<br/>mse = 0.0<br/>samples = 2<br/>value = -0.05>, fillcolor="#fae9dd"] ;
91 -> 95 ;
96 [label=<mse = 0.0<br/>samples = 1<br/>value = -0.051>, fillcolor="#fae9dd"] ;
95 -> 96 ;
97 [label=<mse = 0.0<br/>samples = 1<br/>value = -0.05>, fillcolor="#fae9dd"] ;
95 -> 97 ;
98 [label=<metric_change &le; -0.091<br/>mse = 0.154<br/>samples = 9<br/>value = -0.28>, fillcolor="#fbede2"] ;
14 -> 98 ;
99 [label=<S1_people_vaccinated &le; 1.159<br/>mse = 0.129<br/>samples = 4<br/>value = -0.384>, fillcolor="#fceee5"] ;
98 -> 99 ;
100 [label=<S3_people_vaccinated &le; 0.598<br/>mse = 0.044<br/>samples = 3<br/>value = -0.205>, fillcolor="#fbece1"] ;
99 -> 100 ;
101 [label=<mse = 0.0<br/>samples = 1<br/>value = -0.457>, fillcolor="#fcf0e7"] ;
100 -> 101 ;
102 [label=<mse = 0.019<br/>samples = 2<br/>value = -0.079>, fillcolor="#fbeadd"] ;
100 -> 102 ;
103 [label=<mse = 0.0<br/>samples = 1<br/>value = -0.921>, fillcolor="#fdf7f2"] ;
99 -> 103 ;
104 [label=<HB_bed_Total &le; -1.365<br/>mse = 0.157<br/>samples = 5<br/>value = -0.197>, fillcolor="#fbebe0"] ;
98 -> 104 ;
105 [label=<mse = 0.258<br/>samples = 2<br/>value = -0.474>, fillcolor="#fcf0e7"] ;
104 -> 105 ;
106 [label=<CEN_Without Health Care Coverage &le; -1.003<br/>mse = 0.005<br/>samples = 3<br/>value = -0.012>, fillcolor="#fae9dc"] ;
104 -> 106 ;
107 [label=<mse = 0.0<br/>samples = 1<br/>value = 0.086>, fillcolor="#fae7d9"] ;
106 -> 107 ;
108 [label=<SP_State House Majority Political Affiliation &le; 0.081<br/>mse = 0.0<br/>samples = 2<br/>value = -0.061>, fillcolor="#fbe9dd"] ;
106 -> 108 ;
109 [label=<mse = 0.0<br/>samples = 1<br/>value = -0.069>, fillcolor="#fbe9dd"] ;
108 -> 109 ;
110 [label=<mse = 0.0<br/>samples = 1<br/>value = -0.052>, fillcolor="#fbe9dd"] ;
108 -> 110 ;
111 [label=<metric_change &le; -0.091<br/>mse = 0.285<br/>samples = 6<br/>value = -0.428>, fillcolor="#fcefe6"] ;
13 -> 111 ;
112 [label=<CEN_Total Population &le; 0.519<br/>mse = 0.29<br/>samples = 3<br/>value = -0.679>, fillcolor="#fdf3ec"] ;
111 -> 112 ;
113 [label=<mse = 0.329<br/>samples = 2<br/>value = -0.491>, fillcolor="#fcf0e8"] ;
112 -> 113 ;
114 [label=<mse = -0.0<br/>samples = 1<br/>value = -1.054>, fillcolor="#fef9f6"] ;
112 -> 114 ;
115 [label=<S3_people_fully_vaccinated_per_hundred &le; -0.965<br/>mse = 0.154<br/>samples = 3<br/>value = -0.176>, fillcolor="#fbebe0"] ;
111 -> 115 ;
116 [label=<mse = 0.0<br/>samples = 1<br/>value = 0.181>, fillcolor="#fae5d7"] ;
115 -> 116 ;
117 [label=<mse = 0.136<br/>samples = 2<br/>value = -0.355>, fillcolor="#fbeee4"] ;
115 -> 117 ;
118 [label=<metric_change &le; -0.091<br/>mse = 0.969<br/>samples = 6<br/>value = 0.356>, fillcolor="#f9e3d3"] ;
12 -> 118 ;
119 [label=<FD_totalFireDepartments &le; -0.113<br/>mse = 0.02<br/>samples = 3<br/>value = -0.102>, fillcolor="#fbeade"] ;
118 -> 119 ;
120 [label=<mse = 0.0<br/>samples = 1<br/>value = 0.08>, fillcolor="#fae7d9"] ;
119 -> 120 ;
121 [label=<mse = 0.006<br/>samples = 2<br/>value = -0.193>, fillcolor="#fbebe0"] ;
119 -> 121 ;
122 [label=<FD_moreThan10kCitizens &le; 0.604<br/>mse = 1.498<br/>samples = 3<br/>value = 0.814>, fillcolor="#f8dbc7"] ;
118 -> 122 ;
123 [label=<mse = 0.0<br/>samples = 1<br/>value = 0.178>, fillcolor="#fae6d7"] ;
122 -> 123 ;
124 [label=<mse = 1.943<br/>samples = 2<br/>value = 1.133>, fillcolor="#f7d6bf"] ;
122 -> 124 ;
125 [label=<metric_change &le; -0.091<br/>mse = 1.263<br/>samples = 9<br/>value = -0.576>, fillcolor="#fcf2ea"] ;
11 -> 125 ;
126 [label=<HB_bed_State/Local Government &le; 2.351<br/>mse = 0.34<br/>samples = 4<br/>value = -0.009>, fillcolor="#fae9dc"] ;
125 -> 126 ;
127 [label=<CP_0_diff &le; -0.364<br/>mse = 0.275<br/>samples = 3<br/>value = -0.221>, fillcolor="#fbece1"] ;
126 -> 127 ;
128 [label=<mse = 0.0<br/>samples = 1<br/>value = -0.04>, fillcolor="#fae9dc"] ;
127 -> 128 ;
129 [label=<mse = 0.387<br/>samples = 2<br/>value = -0.311>, fillcolor="#fbede3"] ;
127 -> 129 ;
130 [label=<mse = 0.0<br/>samples = 1<br/>value = 0.625>, fillcolor="#f8decc"] ;
126 -> 130 ;
131 [label=<FD_moreThan10kCitizens &le; -0.195<br/>mse = 1.538<br/>samples = 5<br/>value = -1.03>, fillcolor="#fef9f5"] ;
125 -> 131 ;
132 [label=<mse = 0.0<br/>samples = 1<br/>value = -0.046>, fillcolor="#fae9dd"] ;
131 -> 132 ;
133 [label=<S1_people_vaccinated &le; -0.233<br/>mse = 1.62<br/>samples = 4<br/>value = -1.276>, fillcolor="#fffdfb"] ;
131 -> 133 ;
134 [label=<mse = 1.952<br/>samples = 2<br/>value = -1.424>, fillcolor="#ffffff"] ;
133 -> 134 ;
135 [label=<mse = 1.245<br/>samples = 2<br/>value = -1.128>, fillcolor="#fefaf8"] ;
133 -> 135 ;
136 [label=<metric_change &le; -0.091<br/>mse = 2.183<br/>samples = 2<br/>value = 1.526>, fillcolor="#f5d0b5"] ;
10 -> 136 ;
137 [label=<mse = 0.0<br/>samples = 1<br/>value = 3.004>, fillcolor="#f0b990"] ;
136 -> 137 ;
138 [label=<mse = 0.0<br/>samples = 1<br/>value = 0.048>, fillcolor="#fae8da"] ;
136 -> 138 ;
}
